  0.420131968917482E+000  0.141644548496233E+004  0.859440661520744E+001  0.591823478018399E+002  0.356749885586120E+000 -0.706475902779180E+001 -0.708656147818470E+003
  0.420131968917482E+000  0.141257874806941E+004 -0.283805630899265E+001  0.739985692902641E+002  0.318871704995381E+000 -0.706475902779180E+001 -0.706722779372009E+003
  0.420131968917482E+000  0.141644767379755E+004  0.802860492222970E+001  0.730231832263713E+002  0.287376937130896E+000 -0.706475902779180E+001 -0.708657242236080E+003
  0.420131968917482E+000  0.141262151695422E+004  0.149614177714498E+002  0.740073283504453E+002  0.323538829274405E+000 -0.706475902779180E+001 -0.706744163814417E+003
  0.420131968917482E+000  0.142242769475379E+004  0.922395978613900E+001  0.723585295795529E+002  0.379606372601126E+000 -0.706475902779180E+001 -0.711647252714198E+003
  0.420131968917482E+000  0.141646890196855E+004  0.707064399099305E+001  0.614410444623819E+002  0.369629195397362E+000 -0.706475902779180E+001 -0.708667856321582E+003
  0.420131968917482E+000  0.141648179867334E+004  0.106661689692324E+002  0.731085356638122E+002  0.287321162517044E+000 -0.706475902779180E+001 -0.708674304673975E+003
  0.420131968917482E+000  0.141653049777487E+004  0.299483751649060E+000  0.597761981869494E+002  0.362393784072539E+000 -0.706475902779180E+001 -0.708698654224740E+003
  0.420131968917482E+000  0.141676958147905E+004  0.251536325404197E+001  0.658576938109896E+002  0.375407849749142E+000 -0.706475902779180E+001 -0.708818196076830E+003
  0.420131968917482E+000  0.141678553437771E+004  0.378912115894328E+001  0.776332503326745E+002  0.299869389252152E+000 -0.706475902779180E+001 -0.708826172526159E+003
  0.420131968917482E+000  0.141682450374079E+004 -0.149178998631175E+002  0.606754962440736E+002  0.310858494443108E+000 -0.706475902779180E+001 -0.708845657207699E+003
  0.420131968917482E+000  0.142080799189309E+004 -0.431278507196545E+001  0.733971773588550E+002  0.371358245659748E+000 -0.706475902779180E+001 -0.710837401283851E+003
  0.420131968917482E+000  0.141682578918128E+004 -0.899135866672015E+001  0.583360317853652E+002  0.348179627324225E+000 -0.706475902779180E+001 -0.708846299927945E+003
  0.420131968917482E+000  0.142055805749981E+004 -0.479221476283742E+001  0.757422697162922E+002  0.276726648194509E+000 -0.706475902779180E+001 -0.710712434087211E+003
  0.420131968917482E+000  0.142019075912331E+004 -0.116903774913768E+002  0.641820818367704E+002  0.285714766679318E+000 -0.706475902779180E+001 -0.710528784898961E+003
  0.420131968917482E+000  0.141999738829117E+004 -0.108780355217349E+001  0.752351546227200E+002  0.360932680487889E+000 -0.706475902779180E+001 -0.710432099482893E+003
  0.420131968917482E+000  0.141972096811451E+004  0.903680664471942E+001  0.765161322724359E+002  0.280724077543332E+000 -0.706475902779180E+001 -0.710293889394561E+003
  0.420131968917482E+000  0.141688446280529E+004 -0.676665778456918E+000  0.697687911142934E+002  0.285896699187794E+000 -0.706475902779180E+001 -0.708875636739949E+003
  0.420131968917482E+000  0.141692050304451E+004 -0.886398901517560E+001  0.611509535714256E+002  0.370994115848719E+000 -0.706475902779180E+001 -0.708893656859562E+003
  0.420131968917482E+000  0.141697354094810E+004 -0.847222607353135E+000  0.783505581441951E+002  0.318667890061085E+000 -0.706475902779180E+001 -0.708920175811355E+003
  0.420131968917482E+000  0.141704668294773E+004 -0.252882668387047E+001  0.679207810700763E+002  0.374269172953714E+000 -0.706475902779180E+001 -0.708956746811170E+003
  0.420131968917482E+000  0.141711426594628E+004  0.144366220745383E+002  0.736422747607786E+002  0.285509164388148E+000 -0.706475902779180E+001 -0.708990538310447E+003
  0.420131968917482E+000  0.141729835106019E+004  0.229105840524984E+001  0.579791162232646E+002  0.348624620923087E+000 -0.706475902779180E+001 -0.709082580867402E+003
  0.420131968917482E+000  0.141731747136685E+004  0.571617096937842E+000  0.689572603897654E+002  0.285247261692330E+000 -0.706475902779180E+001 -0.709092141020729E+003
  0.420131968917482E+000  0.141886632082364E+004  0.143602120672552E+002  0.793523219903658E+002  0.297720289407704E+000 -0.706475902779180E+001 -0.709866565749126E+003
  0.420131968917482E+000  0.141881738395806E+004  0.952646785729688E+001  0.597092357413463E+002  0.375056720015249E+000 -0.706475902779180E+001 -0.709842097316335E+003
  0.420131968917482E+000  0.141749604279060E+004  0.417685872691482E+001  0.729323597886643E+002  0.362199046389085E+000 -0.706475902779180E+001 -0.709181426732605E+003
  0.420131968917482E+000  0.141754980235040E+004  0.100652632648020E+002  0.586454051711534E+002  0.322473313207624E+000 -0.706475902779180E+001 -0.709208306512505E+003
  0.420131968917482E+000  0.141763931244091E+004 -0.104391369584141E+001  0.585207834050854E+002  0.323137210201566E+000 -0.706475902779180E+001 -0.709253061557759E+003
  0.420131968917482E+000  0.141793686183325E+004  0.115000974644805E+001  0.579592569065127E+002  0.327619101426159E+000 -0.706475902779180E+001 -0.709401836253928E+003
  0.420131968917482E+000  0.141846182618852E+004  0.146580286626935E+002  0.607743858979013E+002  0.303155352544022E+000 -0.706475902779180E+001 -0.709664318431564E+003
  0.420131968917482E+000  0.141853850775276E+004  0.174792363379240E+002  0.607380560757189E+002  0.377209228367474E+000 -0.706475902779180E+001 -0.709702659213683E+003
  0.420131968917482E+000  0.141862840186652E+004 -0.249607232386744E+001  0.649087165890836E+002  0.382209482678762E+000 -0.706475902779180E+001 -0.709747606270565E+003
  0.420131968917482E+000  0.141631481258658E+004  0.853349306009337E+001  0.747379187642460E+002  0.290302077922410E+000 -0.706475902779180E+001 -0.708590811630593E+003
  0.420131968917482E+000  0.141630954172478E+004 -0.188482503613723E+002  0.619776622549578E+002  0.306312396313985E+000 -0.706475902779180E+001 -0.708588176199694E+003
  0.420131968917482E+000  0.141612634742337E+004  0.181975002505130E+002  0.663960004137504E+002  0.372667525603137E+000 -0.706475902779180E+001 -0.708496579048992E+003
  0.420131968917482E+000  0.141609760769185E+004 -0.741198151152261E+001  0.766786605096850E+002  0.333464554962746E+000 -0.706475902779180E+001 -0.708482209183231E+003
  0.420131968917482E+000  0.141598596103859E+004  0.453892175158780E+001  0.593224714834016E+002  0.353271641466446E+000 -0.706475902779180E+001 -0.708426385856598E+003
  0.420131968917482E+000  0.141594095268034E+004 -0.830139562306967E+001  0.771355366988436E+002  0.326683108028099E+000 -0.706475902779180E+001 -0.708403881677474E+003
  0.420131968917482E+000  0.141577455176137E+004 -0.577042442935137E+001  0.596863841905218E+002  0.326065799513413E+000 -0.706475902779180E+001 -0.708320681217989E+003
  0.420131968917482E+000  0.141575789837444E+004 -0.302385624630938E+001  0.724444308387535E+002  0.357277040342380E+000 -0.706475902779180E+001 -0.708312354524525E+003
  0.420131968917482E+000  0.141562170966215E+004  0.153247887376546E+002  0.762219986852823E+002  0.299299320882618E+000 -0.706475902779180E+001 -0.708244260168379E+003
  0.420131968917482E+000  0.141552008575908E+004  0.118988279296883E+002  0.613716851037001E+002  0.364090914330222E+000 -0.706475902779180E+001 -0.708193448216845E+003
  0.420131968917482E+000  0.141549604580320E+004 -0.125097906723346E+002  0.605311904705398E+002  0.359598661540093E+000 -0.706475902779180E+001 -0.708181428238905E+003
  0.420131968917482E+000  0.141543759109160E+004 -0.175043895962343E+002  0.648085896340844E+002  0.299266789755108E+000 -0.706475902779180E+001 -0.708152200883103E+003
  0.420131968917482E+000  0.141537271100785E+004  0.121278831743567E+002  0.769555218277188E+002  0.309317823448952E+000 -0.706475902779180E+001 -0.708119760841230E+003
  0.420131968917482E+000  0.141529673019299E+004  0.125996272963599E+002  0.671644098832812E+002  0.368704025603047E+000 -0.706475902779180E+001 -0.708081770433800E+003
  0.420131968917482E+000  0.141529297875379E+004  0.809802467076609E+001  0.759772963394551E+002  0.333871794203737E+000 -0.706475902779180E+001 -0.708079894714201E+003
  0.420131968917482E+000  0.141529265885478E+004 -0.906158585309413E+001  0.685014442782406E+002  0.366745402820435E+000 -0.706475902779180E+001 -0.708079734764693E+003
  0.420131968917482E+000  0.141527959640988E+004 -0.144805511233559E+002  0.655143182880387E+002  0.297950018414232E+000 -0.706475902779180E+001 -0.708073203542246E+003
  0.420131968917482E+000  0.141523306260871E+004  0.453868372993960E+001  0.723494660651357E+002  0.355361533874558E+000 -0.706475902779180E+001 -0.708049936641661E+003
  0.420131968917482E+000  0.141265425575968E+004 -0.942060424831751E+001  0.699906030928656E+002  0.350544995088299E+000 -0.706475902779180E+001 -0.706760533217143E+003
  0.420131968917482E+000  0.141519207187953E+004 -0.121245675608534E+002  0.687454833683350E+002  0.292522015960230E+000 -0.706475902779180E+001 -0.708029441277068E+003
  0.420131968917482E+000  0.141517781592307E+004 -0.150891937954519E+001  0.759842448330181E+002  0.301337079090594E+000 -0.706475902779180E+001 -0.708022313298838E+003
  0.420131968917482E+000  0.141515906071776E+004 -0.129432935973028E+002  0.636038051941707E+002  0.367917584582975E+000 -0.706475902779180E+001 -0.708012935696185E+003
  0.420131968917482E+000  0.141514876610176E+004  0.114914836315039E+002  0.613254365491277E+002  0.316122792879212E+000 -0.706475902779180E+001 -0.708007788388186E+003
  0.420131968917482E+000  0.141512195757950E+004  0.100637366484873E+002  0.686500113271679E+002  0.365776351444123E+000 -0.706475902779180E+001 -0.707994384127056E+003
  0.420131968917482E+000  0.141510652662297E+004  0.347578426579763E+001  0.626862204359971E+002  0.308623554550737E+000 -0.706475902779180E+001 -0.707986668648792E+003
  0.420131968917482E+000  0.141505639549103E+004 -0.179333232163826E+001  0.757617603218044E+002  0.300964481239443E+000 -0.706475902779180E+001 -0.707961603082823E+003
  0.420131968917482E+000  0.141504637468537E+004  0.530988945879823E+001  0.757696753540440E+002  0.333819757065301E+000 -0.706475902779180E+001 -0.707956592679990E+003
  0.420131968917482E+000  0.141503878525278E+004  0.185519640079130E+002  0.615171108372368E+002  0.315525587614419E+000 -0.706475902779180E+001 -0.707952797963694E+003
  0.420131968917482E+000  0.141492989459609E+004  0.105223109256332E+002  0.611033351972530E+002  0.319279558825210E+000 -0.706475902779180E+001 -0.707898352635348E+003
  0.420131968917482E+000  0.141492396257199E+004  0.159405817515574E+002  0.622046273342188E+002  0.312048223217063E+000 -0.706475902779180E+001 -0.707895386623302E+003
  0.420131968917482E+000  0.141490003336719E+004 -0.138642528187679E+002  0.736056806247102E+002  0.294652420348678E+000 -0.706475902779180E+001 -0.707883422020902E+003
  0.420131968917482E+000  0.141488316549937E+004  0.790282647729215E+001  0.599021252453015E+002  0.343753233628596E+000 -0.706475902779180E+001 -0.707874988086991E+003
  0.420131968917482E+000  0.141479205646215E+004 -0.361132726071018E+001  0.739841291811340E+002  0.345198259312030E+000 -0.706475902779180E+001 -0.707829433568380E+003
  0.420131968917482E+000  0.141477471305018E+004  0.176659024693935E+002  0.648516734247320E+002  0.301854571972305E+000 -0.706475902779180E+001 -0.707820761862395E+003
  0.420131968917482E+000  0.141477374391642E+004  0.192821358089131E+002  0.700187518665881E+002  0.293147149926967E+000 -0.706475902779180E+001 -0.707820277295516E+003
  0.420131968917482E+000  0.141467750965427E+004 -0.149403401862968E+001  0.764191982674299E+002  0.315642969214103E+000 -0.706475902779180E+001 -0.707772160164439E+003
  0.420131968917482E+000  0.141464269754318E+004  0.860265995741875E+001  0.760946889439409E+002  0.325551377065508E+000 -0.706475902779180E+001 -0.707754754108897E+003
  0.420131968917482E+000  0.141462481567916E+004  0.191371248620780E+002  0.601607430602522E+002  0.344111473115607E+000 -0.706475902779180E+001 -0.707745813176883E+003
  0.420131968917482E+000  0.141461803089952E+004 -0.838329468624213E+000  0.601116906593332E+002  0.339889406910688E+000 -0.706475902779180E+001 -0.707742420787066E+003
  0.420131968917482E+000  0.141461409991624E+004  0.163730550509134E+002  0.604600655663361E+002  0.349965521017255E+000 -0.706475902779180E+001 -0.707740455295427E+003
  0.420131968917482E+000  0.141457286356606E+004 -0.637445812529384E+001  0.601614194213934E+002  0.341362960589577E+000 -0.706475902779180E+001 -0.707719837120333E+003
  0.420131968917482E+000  0.141456831345830E+004 -0.407269131795982E+001  0.625313791683551E+002  0.312280790479117E+000 -0.706475902779180E+001 -0.707717562066458E+003
  0.420131968917482E+000  0.141455884871920E+004  0.356523872184587E+001  0.739441606584616E+002  0.344072982463746E+000 -0.706475902779180E+001 -0.707712829696905E+003
  0.420131968917482E+000  0.141265487512587E+004  0.179541579040423E+002  0.713196011563556E+002  0.345685883181745E+000 -0.706475902779180E+001 -0.706760842900240E+003
  0.420131968917482E+000  0.141453234840627E+004 -0.772540140903143E+000  0.609212592812013E+002  0.324336202718120E+000 -0.706475902779180E+001 -0.707699579540443E+003
  0.420131968917482E+000  0.141451684194844E+004  0.119458717212950E+002  0.618725656137957E+002  0.316556953241210E+000 -0.706475902779180E+001 -0.707691826311524E+003
  0.420131968917482E+000  0.141451421121355E+004  0.693826015244879E+001  0.627710652937123E+002  0.311329076377102E+000 -0.706475902779180E+001 -0.707690510944078E+003
  0.420131968917482E+000  0.141451116056438E+004  0.669378223196834E+001  0.743232738726257E+002  0.341376156264194E+000 -0.706475902779180E+001 -0.707688985619497E+003
  0.420131968917482E+000  0.141450655168170E+004 -0.159630165204207E+002  0.758873938432560E+002  0.307449743478435E+000 -0.706475902779180E+001 -0.707686681178158E+003
  0.420131968917482E+000  0.141445942839288E+004  0.108860382381578E+001  0.606707208099932E+002  0.350475874474154E+000 -0.706475902779180E+001 -0.707663119533745E+003
  0.420131968917482E+000  0.141441871397457E+004  0.136016204321251E+002  0.633960083019331E+002  0.308874504486703E+000 -0.706475902779180E+001 -0.707642762324593E+003
  0.420131968917482E+000  0.141441634203412E+004  0.139668911370292E+002  0.754784319641995E+002  0.304773115190991E+000 -0.706475902779180E+001 -0.707641576354364E+003
  0.420131968917482E+000  0.141438849145805E+004  0.170095880183009E+002  0.640635493902094E+002  0.306292661118121E+000 -0.706475902779180E+001 -0.707627651066332E+003
  0.420131968917482E+000  0.141437551541621E+004  0.150539871118009E+001  0.677931774095867E+002  0.364007807562957E+000 -0.706475902779180E+001 -0.707621163045410E+003
  0.420131968917482E+000  0.141437129339904E+004 -0.118266599192504E+002  0.742115987378048E+002  0.341204323335146E+000 -0.706475902779180E+001 -0.707619052036825E+003
  0.420131968917482E+000  0.141433960829169E+004 -0.835339247633986E+000  0.604660768099238E+002  0.334415676354042E+000 -0.706475902779180E+001 -0.707603209483148E+003
  0.420131968917482E+000  0.141432810935879E+004 -0.181956539040381E+002  0.745741177046820E+002  0.300603932286669E+000 -0.706475902779180E+001 -0.707597460016698E+003
  0.420131968917482E+000  0.141430203664395E+004 -0.999616538328713E+001  0.697933715680821E+002  0.359690502360940E+000 -0.706475902779180E+001 -0.707584423659279E+003
  0.420131968917482E+000  0.141424735208154E+004  0.107603545475767E+002  0.755432889865169E+002  0.328223627108185E+000 -0.706475902779180E+001 -0.707557081378073E+003
  0.420131968917482E+000  0.141422708512978E+004 -0.191970010715212E+002  0.698998901170179E+002  0.359066196691165E+000 -0.706475902779180E+001 -0.707546947902194E+003
  0.420131968917482E+000  0.141420107106445E+004 -0.111057005751628E+002  0.658339666779749E+002  0.301571331062609E+000 -0.706475902779180E+001 -0.707533940869531E+003
  0.420131968917482E+000  0.141413975314750E+004  0.146269532075804E+002  0.649828596471311E+002  0.364224612162172E+000 -0.706475902779180E+001 -0.707503281911055E+003
  0.420131968917482E+000  0.141412371277207E+004  0.845518555512473E+001  0.654876981037136E+002  0.302851498627653E+000 -0.706475902779180E+001 -0.707495261723339E+003
  0.420131968917482E+000  0.141411529205491E+004  0.141206457414435E+002  0.651386610948917E+002  0.303915584262999E+000 -0.706475902779180E+001 -0.707491051364762E+003
  0.420131968917482E+000  0.141411235477740E+004  0.122479158790716E+001  0.610370788986516E+002  0.327755100706513E+000 -0.706475902779180E+001 -0.707489582726004E+003
  0.420131968917482E+000  0.141408315441957E+004  0.208011008345092E+001  0.757447669360539E+002  0.321414240492043E+000 -0.706475902779180E+001 -0.707474982547090E+003
  0.420131968917482E+000  0.141406944242196E+004 -0.192670558037256E+002  0.630718422650657E+002  0.360871547291280E+000 -0.706475902779180E+001 -0.707468126548287E+003
  0.420131968917482E+000  0.141405878602224E+004  0.107482713049323E+002  0.628116760073992E+002  0.360029748754267E+000 -0.706475902779180E+001 -0.707462798348427E+003
  0.420131968917482E+000  0.141402886843322E+004 -0.131325740953881E+002  0.617620075580399E+002  0.321073240676529E+000 -0.706475902779180E+001 -0.707447839553918E+003
  0.420131968917482E+000  0.141400339998249E+004 -0.348851267219326E+001  0.709916329323681E+002  0.296274813455326E+000 -0.706475902779180E+001 -0.707435105328553E+003
  0.420131968917482E+000  0.141399449814407E+004 -0.467515727711953E+001  0.716848855473279E+002  0.296628505836920E+000 -0.706475902779180E+001 -0.707430654409341E+003
  0.420131968917482E+000  0.141397805124264E+004  0.104974471948722E-001  0.630458628139008E+002  0.360212719218850E+000 -0.706475902779180E+001 -0.707422430958625E+003
  0.420131968917482E+000  0.141391987373563E+004 -0.864072998585317E+001  0.669817198904155E+002  0.362820357876469E+000 -0.706475902779180E+001 -0.707393342205122E+003
  0.420131968917482E+000  0.141389595092871E+004 -0.121782720029133E+002  0.629252520571344E+002  0.314192291570115E+000 -0.706475902779180E+001 -0.707381380801659E+003
  0.420131968917482E+000  0.141388830003447E+004  0.111290881457563E+001  0.609821286404215E+002  0.332487469535940E+000 -0.706475902779180E+001 -0.707377555354543E+003
  0.420131968917482E+000  0.141382696597371E+004  0.827761757698805E+001  0.619338135934937E+002  0.321396637895529E+000 -0.706475902779180E+001 -0.707346888324159E+003
  0.420131968917482E+000  0.141382052369364E+004 -0.170551297371091E+001  0.738166620128381E+002  0.301354506346656E+000 -0.706475902779180E+001 -0.707343667184127E+003
  0.420131968917482E+000  0.141378395292763E+004 -0.790638317679558E+001  0.657076275821514E+002  0.362647887869830E+000 -0.706475902779180E+001 -0.707325381801122E+003
  0.420131968917482E+000  0.141371161748400E+004  0.119554724173597E+002  0.751540101712591E+002  0.326034102984373E+000 -0.706475902779180E+001 -0.707289214079304E+003
  0.420131968917482E+000  0.141369686932268E+004  0.145189348399548E+002  0.753896680203115E+002  0.318162389163246E+000 -0.706475902779180E+001 -0.707281839998647E+003
  0.420131968917482E+000  0.141368284100614E+004 -0.140915522523402E+002  0.681643474013899E+002  0.360222978526793E+000 -0.706475902779180E+001 -0.707274825840374E+003
  0.420131968917482E+000  0.141368098036276E+004 -0.170086826932855E+002  0.610603469689768E+002  0.339642355968245E+000 -0.706475902779180E+001 -0.707273895518687E+003
  0.420131968917482E+000  0.141367810739747E+004  0.118022453222421E+002  0.648259256660669E+002  0.361656475920814E+000 -0.706475902779180E+001 -0.707272459036040E+003
  0.420131968917482E+000  0.141364401788422E+004 -0.138778266433500E+002  0.632117335481471E+002  0.314247556550248E+000 -0.706475902779180E+001 -0.707255414279413E+003
  0.420131968917482E+000  0.141363764659288E+004 -0.173613911794910E+002  0.626821167610816E+002  0.356535562414293E+000 -0.706475902779180E+001 -0.707252228633745E+003
  0.420131968917482E+000  0.141358771845444E+004 -0.158082355029547E+001  0.691157432087728E+002  0.298723603917458E+000 -0.706475902779180E+001 -0.707227264564525E+003
  0.420131968917482E+000  0.141357525832155E+004 -0.141302364101857E+002  0.642295927219747E+002  0.360322972153060E+000 -0.706475902779180E+001 -0.707221034498079E+003
  0.420131968917482E+000  0.141357282114158E+004 -0.139571236428269E+002  0.728817124736845E+002  0.344064522311296E+000 -0.706475902779180E+001 -0.707219815908097E+003
  0.420131968917482E+000  0.141357162079776E+004 -0.147611480168154E+002  0.677146627873919E+002  0.300467887461235E+000 -0.706475902779180E+001 -0.707219215736185E+003
  0.420131968917482E+000  0.141266448835074E+004  0.152615278509871E+002  0.726785714665075E+002  0.338524393526448E+000 -0.706475902779180E+001 -0.706765649512677E+003
  0.420131968917482E+000  0.141354351314778E+004 -0.361746425525987E+001  0.746010760591876E+002  0.307514601143819E+000 -0.706475902779180E+001 -0.707205161911197E+003
  0.420131968917482E+000  0.141352534602712E+004  0.978426751865697E+000  0.659860142121919E+002  0.361303872928935E+000 -0.706475902779180E+001 -0.707196078350863E+003
  0.420131968917482E+000  0.141351897740587E+004  0.186357681708942E+002  0.612440610738205E+002  0.336970341298004E+000 -0.706475902779180E+001 -0.707192894040243E+003
  0.420131968917482E+000  0.141349944704492E+004 -0.806599955586630E+001  0.720666464235513E+002  0.299539782369631E+000 -0.706475902779180E+001 -0.707183128859764E+003
  0.420131968917482E+000  0.141349134984092E+004 -0.192670394658220E+002  0.662506433492341E+002  0.361083422636175E+000 -0.706475902779180E+001 -0.707179080257763E+003
  0.420131968917482E+000  0.141348445061935E+004 -0.320686325344711E+001  0.651371676659848E+002  0.307026987871762E+000 -0.706475902779180E+001 -0.707175630646979E+003
  0.420131968917482E+000  0.141347950015181E+004 -0.260426079857830E+001  0.681186294265989E+002  0.300298863931306E+000 -0.706475902779180E+001 -0.707173155413211E+003
  0.420131968917482E+000  0.141344728251646E+004  0.146665618655247E+002  0.623322325588003E+002  0.353157637624790E+000 -0.706475902779180E+001 -0.707157046595536E+003
  0.420131968917482E+000  0.141342559941845E+004 -0.225727494022447E+001  0.652433190480941E+002  0.306988735343467E+000 -0.706475902779180E+001 -0.707146205046530E+003
  0.420131968917482E+000  0.141342138524350E+004 -0.103560319193815E+002  0.690162223115796E+002  0.299578939618018E+000 -0.706475902779180E+001 -0.707144097959057E+003
  0.420131968917482E+000  0.141339580284173E+004 -0.626654581845108E+001  0.734324897430850E+002  0.303093842785470E+000 -0.706475902779180E+001 -0.707131306758172E+003
  0.420131968917482E+000  0.141338517800806E+004 -0.139589965709965E+002  0.674972976072801E+002  0.359652821354756E+000 -0.706475902779180E+001 -0.707125994341337E+003
  0.420131968917482E+000  0.141338333547093E+004 -0.194127536452688E+002  0.675254629495587E+002  0.301657389127738E+000 -0.706475902779180E+001 -0.707125073072769E+003
  0.420131968917482E+000  0.141338073972613E+004 -0.116981603993192E+002  0.734707541017071E+002  0.303332393297592E+000 -0.706475902779180E+001 -0.707123775200371E+003
  0.420131968917482E+000  0.141336572598078E+004 -0.283585041497457E+001  0.633238548616277E+002  0.315503866361687E+000 -0.706475902779180E+001 -0.707116268327695E+003
  0.420131968917482E+000  0.141335203158060E+004  0.418517977011661E+001  0.749923439419712E+002  0.318559776783297E+000 -0.706475902779180E+001 -0.707109421127607E+003
  0.420131968917482E+000  0.141333959374080E+004 -0.117273126605692E+002  0.622622651311897E+002  0.323175114459961E+000 -0.706475902779180E+001 -0.707103202207707E+003
  0.420131968917482E+000  0.141332405590501E+004 -0.174500514486095E+002  0.698633460126710E+002  0.354713121377786E+000 -0.706475902779180E+001 -0.707095433289813E+003
  0.420131968917482E+000  0.141332092941662E+004  0.113041740760740E+002  0.618847164384294E+002  0.348204340307013E+000 -0.706475902779180E+001 -0.707093870045614E+003
  0.420131968917482E+000  0.141332023887568E+004 -0.120184721793108E+002  0.717808678194966E+002  0.347911756126692E+000 -0.706475902779180E+001 -0.707093524775144E+003
  0.420131968917482E+000  0.141330820055020E+004  0.279519750882665E+001  0.664077135779089E+002  0.304313901867135E+000 -0.706475902779180E+001 -0.707087505612405E+003
  0.420131968917482E+000  0.141330506305129E+004 -0.142145854190609E+002  0.631442873169796E+002  0.355748808788291E+000 -0.706475902779180E+001 -0.707085936862952E+003
  0.420131968917482E+000  0.141266738378315E+004 -0.834055371571243E+001  0.741241410894200E+002  0.320810402165186E+000 -0.706475902779180E+001 -0.706767097228879E+003
  0.420131968917482E+000  0.141329083169459E+004  0.109130849862848E+002  0.737455420582434E+002  0.336351752187262E+000 -0.706475902779180E+001 -0.707078821184602E+003
  0.420131968917482E+000  0.141328352969892E+004 -0.292269917985874E+001  0.697757596789993E+002  0.299773219446697E+000 -0.706475902779180E+001 -0.707075170186765E+003
  0.420131968917482E+000  0.141327918334223E+004 -0.165359899791976E+002  0.678854526721973E+002  0.358609105782815E+000 -0.706475902779180E+001 -0.707072997008421E+003
  0.420131968917482E+000  0.141327447477447E+004  0.121500015143229E+002  0.622042700027791E+002  0.350472612309295E+000 -0.706475902779180E+001 -0.707070642724538E+003
  0.420131968917482E+000  0.141327173372170E+004  0.171766612188474E+001  0.633105562376424E+002  0.316246677951083E+000 -0.706475902779180E+001 -0.707069272198153E+003
  0.420131968917482E+000  0.141327019619348E+004  0.193871388842370E+002  0.705229724574916E+002  0.352424948838013E+000 -0.706475902779180E+001 -0.707068503434047E+003
  0.420131968917482E+000  0.141326711692929E+004  0.372388965799394E+001  0.673309063948783E+002  0.359217759875654E+000 -0.706475902779180E+001 -0.707066963801953E+003
  0.420131968917482E+000  0.141325927963659E+004 -0.149731399442618E+002  0.720882363687140E+002  0.346131532778368E+000 -0.706475902779180E+001 -0.707063045155598E+003
  0.420131968917482E+000  0.141325680245997E+004 -0.833366107410416E+001  0.621646310872041E+002  0.349947875225293E+000 -0.706475902779180E+001 -0.707061806567292E+003
  0.420131968917482E+000  0.141321907802645E+004 -0.112474773656198E+002  0.715909260599394E+002  0.300574726854002E+000 -0.706475902779180E+001 -0.707042944350532E+003
  0.420131968917482E+000  0.141318660796171E+004 -0.151256027208415E+002  0.686342039357521E+002  0.301069764032894E+000 -0.706475902779180E+001 -0.707026709318159E+003
  0.420131968917482E+000  0.141316293910109E+004 -0.468315661962925E+001  0.656754984295217E+002  0.359262581391348E+000 -0.706475902779180E+001 -0.707014874887851E+003
  0.420131968917482E+000  0.141316087557312E+004 -0.145809726212288E+001  0.747248537100967E+002  0.321837031992813E+000 -0.706475902779180E+001 -0.707013843123864E+003
  0.420131968917482E+000  0.141315739177027E+004  0.101739193792162E+002  0.747306338348293E+002  0.316533240212172E+000 -0.706475902779180E+001 -0.707012101222440E+003
  0.420131968917482E+000  0.141313869351832E+004  0.176529532820022E+002  0.743457682144820E+002  0.328764062949730E+000 -0.706475902779180E+001 -0.707002752096466E+003
  0.420131968917482E+000  0.141271164217604E+004 -0.133844902741487E+002  0.622134549277174E+002  0.339227417818203E+000 -0.706475902779180E+001 -0.706789226425324E+003
  0.420131968917482E+000  0.141308112306507E+004  0.103575224643229E+002  0.619761057650291E+002  0.345296747351850E+000 -0.706475902779180E+001 -0.706973966869839E+003
  0.420131968917482E+000  0.141307517967001E+004 -0.849358148935379E+001  0.744757185784623E+002  0.325624434659288E+000 -0.706475902779180E+001 -0.706970995172312E+003
  0.420131968917482E+000  0.141305860445777E+004 -0.143818827171871E+002  0.726636976763893E+002  0.303314911672404E+000 -0.706475902779180E+001 -0.706962707566189E+003
  0.420131968917482E+000  0.141303094656840E+004 -0.675054037201413E+001  0.628337118423851E+002  0.351949695873905E+000 -0.706475902779180E+001 -0.706948878621506E+003
  0.420131968917482E+000  0.141302821366772E+004  0.435798541659889E+001  0.709494070175808E+002  0.349546133414232E+000 -0.706475902779180E+001 -0.706947512171167E+003
  0.420131968917482E+000  0.141301971065797E+004  0.881738477612408E+001  0.641620904620885E+002  0.313559313734731E+000 -0.706475902779180E+001 -0.706943260666292E+003
  0.420131968917482E+000  0.141301930539402E+004  0.789233615692454E+001  0.668873843025800E+002  0.358244983916122E+000 -0.706475902779180E+001 -0.706943058034314E+003
  0.420131968917482E+000  0.141301584728347E+004  0.162136215231290E+002  0.619877343345152E+002  0.331199277942364E+000 -0.706475902779180E+001 -0.706941328979042E+003
  0.420131968917482E+000  0.141301571367825E+004 -0.586026034961201E+000  0.740409122553369E+002  0.330734655463781E+000 -0.706475902779180E+001 -0.706941262176433E+003
  0.420131968917482E+000  0.141298816104181E+004 -0.127318742495371E+001  0.683252811364259E+002  0.356370991287875E+000 -0.706475902779180E+001 -0.706927485858212E+003
  0.420131968917482E+000  0.141293038502463E+004 -0.893060602365890E+001  0.732409182959833E+002  0.306095177836808E+000 -0.706475902779180E+001 -0.706898597849622E+003
  0.420131968917482E+000  0.141293026389046E+004  0.555102000871491E+001  0.741013888132194E+002  0.311289301534142E+000 -0.706475902779180E+001 -0.706898537282534E+003
  0.420131968917482E+000  0.141290785958311E+004 -0.133661274148969E+002  0.741491059986177E+002  0.327754046032095E+000 -0.706475902779180E+001 -0.706887335128859E+003
  0.420131968917482E+000  0.141288881123561E+004 -0.909048658936078E+001  0.719845008860516E+002  0.344194283891585E+000 -0.706475902779180E+001 -0.706877810955113E+003
  0.420131968917482E+000  0.141287763343607E+004 -0.191798560990846E+002  0.744007320688321E+002  0.320515437820374E+000 -0.706475902779180E+001 -0.706872222055339E+003
  0.420131968917482E+000  0.141287367888145E+004 -0.176316413569938E+002  0.640905023576945E+002  0.314905368369421E+000 -0.706475902779180E+001 -0.706870244778031E+003
  0.420131968917482E+000  0.141283527651735E+004  0.165219307844152E+002  0.726790296241774E+002  0.304982842087708E+000 -0.706475902779180E+001 -0.706851043595982E+003
  0.420131968917482E+000  0.141279651184308E+004 -0.497428488876832E+001  0.631760389440118E+002  0.321035027879431E+000 -0.706475902779180E+001 -0.706831661258843E+003
  0.420131968917482E+000  0.141272301293429E+004 -0.192752897696231E+002  0.741463519285757E+002  0.316551181948329E+000 -0.706475902779180E+001 -0.706794911804452E+003
  0.420131968917482E+000  0.141277168104240E+004  0.122398698410686E+002  0.642061110675965E+002  0.354874668274269E+000 -0.706475902779180E+001 -0.706819245858503E+003
  0.420131968917482E+000  0.141276909462606E+004  0.172046506102458E+002  0.655461636944798E+002  0.356814044080839E+000 -0.706475902779180E+001 -0.706817952650333E+003
  0.420131968917482E+000  0.141276204185004E+004  0.471970297063366E+001  0.622401525355920E+002  0.332324376653033E+000 -0.706475902779180E+001 -0.706814426262324E+003
  0.420131968917482E+000  0.141274137701778E+004  0.165189846220890E+002  0.724235709116689E+002  0.340742997585893E+000 -0.706475902779180E+001 -0.706804093846196E+003
  0.420131968917482E+000  0.141256966696221E+004  0.756197872612492E+001  0.729096387485701E+002  0.308035472762670E+000 -0.706475902779180E+001 -0.706718238818410E+003
  0.420131968917482E+000  0.141256168420378E+004 -0.125344013415437E+002  0.684505156853727E+002  0.304535435182997E+000 -0.706475902779180E+001 -0.706714247439197E+003
  0.420131968917482E+000  0.141255858060260E+004  0.181895976823265E+002  0.635065115868267E+002  0.350637948302053E+000 -0.706475902779180E+001 -0.706712695638603E+003
  0.420131968917482E+000  0.141253320319184E+004  0.988211074318182E+001  0.668931146584147E+002  0.355387262104997E+000 -0.706475902779180E+001 -0.706700006933226E+003
  0.420131968917482E+000  0.141252451437151E+004  0.102314265967523E+002  0.659358508905495E+002  0.355427107498825E+000 -0.706475902779180E+001 -0.706695662523058E+003
  0.420131968917482E+000  0.141251854296467E+004 -0.399272760681811E+001  0.729425910304097E+002  0.308682226380710E+000 -0.706475902779180E+001 -0.706692676819639E+003
  0.420131968917482E+000  0.141251715578827E+004  0.177202634458822E+002  0.624547312514905E+002  0.337027580371313E+000 -0.706475902779180E+001 -0.706691983231441E+003
  0.420131968917482E+000  0.141251295757763E+004  0.690869572674096E+001  0.642593408381139E+002  0.316740143681682E+000 -0.706475902779180E+001 -0.706689884126118E+003
  0.420131968917482E+000  0.141250190179367E+004  0.924131796579176E+001  0.635862285354913E+002  0.350433336754645E+000 -0.706475902779180E+001 -0.706684356234140E+003
  0.420131968917482E+000  0.141248147571406E+004  0.187530509694692E+002  0.727511142674087E+002  0.336319038142722E+000 -0.706475902779180E+001 -0.706674143194335E+003
  0.420131968917482E+000  0.141247862858105E+004  0.499127093704998E+001  0.717665991181548E+002  0.305534915026855E+000 -0.706475902779180E+001 -0.706672719627832E+003
  0.420131968917482E+000  0.141247494999394E+004  0.700058786957598E-001  0.707185536494175E+002  0.346916757653810E+000 -0.706475902779180E+001 -0.706670880334277E+003
  0.420131968917482E+000  0.141247127293635E+004 -0.756525694311541E+001  0.660605446888662E+002  0.355115499465763E+000 -0.706475902779180E+001 -0.706669041805481E+003
  0.420131968917482E+000  0.141244539193112E+004  0.174327912676044E+002  0.730034706253776E+002  0.333932432570499E+000 -0.706475902779180E+001 -0.706656101302866E+003
  0.420131968917482E+000  0.141244217398147E+004  0.888470755556934E+001  0.685654113925610E+002  0.352772908680221E+000 -0.706475902779180E+001 -0.706654492328039E+003
  0.420131968917482E+000  0.141243258425422E+004 -0.179800191560555E+002  0.665706129844155E+002  0.354873980659741E+000 -0.706475902779180E+001 -0.706649697464413E+003
  0.420131968917482E+000  0.141243212102496E+004 -0.935766270922519E+001  0.663662558087314E+002  0.309245964150334E+000 -0.706475902779180E+001 -0.706649465849785E+003
  0.420131968917482E+000  0.141242265595219E+004  0.798160372685157E+001  0.656991623293213E+002  0.354615928634475E+000 -0.706475902779180E+001 -0.706644733313399E+003
  0.420131968917482E+000  0.141241031901406E+004  0.116524567578536E+001  0.736557122391157E+002  0.325352289050034E+000 -0.706475902779180E+001 -0.706638564844336E+003
  0.420131968917482E+000  0.141240643078582E+004  0.140644868267639E+002  0.644319160200088E+002  0.352528255366384E+000 -0.706475902779180E+001 -0.706636620730213E+003
  0.420131968917482E+000  0.141240258978719E+004  0.119477931444877E+002  0.686616115160765E+002  0.305216497368192E+000 -0.706475902779180E+001 -0.706634700230901E+003
  0.420131968917482E+000  0.141238772845788E+004 -0.519983628553149E-001  0.720543604333361E+002  0.339998336287806E+000 -0.706475902779180E+001 -0.706627269566247E+003
  0.420131968917482E+000  0.141235132275744E+004 -0.221424632426992E+001  0.681230966785536E+002  0.352971959642469E+000 -0.706475902779180E+001 -0.706609066716026E+003
  0.420131968917482E+000  0.141230906515595E+004  0.616017519279225E+001  0.697148903050447E+002  0.349176260975507E+000 -0.706475902779180E+001 -0.706587937915278E+003
  0.420131968917482E+000  0.141230322014002E+004 -0.683957128869473E+000  0.714320161534199E+002  0.306254947384010E+000 -0.706475902779180E+001 -0.706585015407313E+003
  0.420131968917482E+000  0.141229620960387E+004 -0.384173865674465E+001  0.702280131428477E+002  0.347472587510370E+000 -0.706475902779180E+001 -0.706581510139241E+003
  0.420131968917482E+000  0.141228732942538E+004  0.802814961182170E+001  0.678804346380456E+002  0.352915984540252E+000 -0.706475902779180E+001 -0.706577070049998E+003
  0.420131968917482E+000  0.141228212853779E+004 -0.183829455096869E+002  0.644792131511238E+002  0.351585444900439E+000 -0.706475902779180E+001 -0.706574469606199E+003
  0.420131968917482E+000  0.141228175477070E+004 -0.923832089101482E+001  0.735107886696442E+002  0.324565324088381E+000 -0.706475902779180E+001 -0.706574282722655E+003
  0.420131968917482E+000  0.141226840091623E+004  0.165918034071417E+002  0.638642369539571E+002  0.349264971750928E+000 -0.706475902779180E+001 -0.706567605795421E+003
  0.420131968917482E+000  0.141226514238424E+004  0.196202637471734E+001  0.655895301064890E+002  0.353403163394282E+000 -0.706475902779180E+001 -0.706565976529425E+003
  0.420131968917482E+000  0.141226016393339E+004  0.276777525885656E+001  0.695471704840212E+002  0.349329347590482E+000 -0.706475902779180E+001 -0.706563487304001E+003
  0.420131968917482E+000  0.141225069721006E+004  0.102527646821573E+001  0.658247956256272E+002  0.312050092259103E+000 -0.706475902779180E+001 -0.706558753942336E+003
  0.420131968917482E+000  0.141224312092543E+004 -0.140172916156828E+002  0.667657165092990E+002  0.353572044444938E+000 -0.706475902779180E+001 -0.706554965800021E+003
  0.420131968917482E+000  0.141223002705333E+004  0.522841844331282E+001  0.734351569817657E+002  0.324621826528488E+000 -0.706475902779180E+001 -0.706548418863971E+003
  0.420131968917482E+000  0.141222590599132E+004  0.114294174637562E+002  0.697938667411388E+002  0.305657025405266E+000 -0.706475902779180E+001 -0.706546358332964E+003
  0.420131968917482E+000  0.141219459640718E+004 -0.180345692108030E+002  0.638556873609047E+002  0.322163543695680E+000 -0.706475902779180E+001 -0.706530703540895E+003
  0.420131968917482E+000  0.141216497775080E+004 -0.967122243538206E+000  0.637299023999040E+002  0.347377889613517E+000 -0.706475902779180E+001 -0.706515894212705E+003
  0.420131968917482E+000  0.141212839082976E+004  0.198214468031790E+001  0.678493040518455E+002  0.351915914358277E+000 -0.706475902779180E+001 -0.706497600752185E+003
  0.420131968917482E+000  0.141212017723345E+004  0.502509005592391E+001  0.682465723920105E+002  0.307399956332317E+000 -0.706475902779180E+001 -0.706493493954030E+003
  0.420131968917482E+000  0.141209554464101E+004 -0.106442502949820E+002  0.649662722448980E+002  0.316600398717365E+000 -0.706475902779180E+001 -0.706481177657812E+003
  0.420131968917482E+000  0.141209101400473E+004  0.128005014899421E+002  0.673056675475529E+002  0.309150191106789E+000 -0.706475902779180E+001 -0.706478912339673E+003
  0.420131968917482E+000  0.141208035540097E+004 -0.107017175990437E+001  0.713422545508252E+002  0.341237066955228E+000 -0.706475902779180E+001 -0.706473583037789E+003
  0.420131968917482E+000  0.141207154887448E+004 -0.173132263120232E+002  0.688178449973776E+002  0.349861170864339E+000 -0.706475902779180E+001 -0.706469179774543E+003
  0.420131968917482E+000  0.141205914035454E+004  0.110700450914383E+002  0.726174455044931E+002  0.332529699316739E+000 -0.706475902779180E+001 -0.706462975514575E+003
  0.420131968917482E+000  0.141205025874479E+004  0.164586058780689E+002  0.651748690607561E+002  0.316023256018357E+000 -0.706475902779180E+001 -0.706458534709700E+003
  0.420131968917482E+000  0.141204065413122E+004  0.195833088360675E+001  0.719357596921527E+002  0.337512613413406E+000 -0.706475902779180E+001 -0.706453732402917E+003
  0.420131968917482E+000  0.141198974050789E+004 -0.144384364958837E+002  0.661243539451297E+002  0.351720516789894E+000 -0.706475902779180E+001 -0.706428275591249E+003
  0.420131968917482E+000  0.141196623772859E+004  0.157636867218418E+002  0.641304921638790E+002  0.322735522902258E+000 -0.706475902779180E+001 -0.706416524201601E+003
  0.420131968917482E+000  0.141196505934927E+004 -0.968069358103016E+001  0.664380546051890E+002  0.312125661956048E+000 -0.706475902779180E+001 -0.706415935011939E+003
  0.420131968917482E+000  0.141196477364734E+004  0.140121052412129E+002  0.693969546047317E+002  0.307461638983207E+000 -0.706475902779180E+001 -0.706415792160973E+003
  0.420131968917482E+000  0.141196272129629E+004 -0.545675850994211E+001  0.681660017477426E+002  0.308523716950906E+000 -0.706475902779180E+001 -0.706414765985451E+003
  0.420131968917482E+000  0.141196229369429E+004  0.193161000904597E+002  0.729676752800621E+002  0.317356461065680E+000 -0.706475902779180E+001 -0.706414552184450E+003
  0.420131968917482E+000  0.141196058657732E+004  0.144549049202123E+002  0.726610374002487E+002  0.330598175600480E+000 -0.706475902779180E+001 -0.706413698625965E+003
  0.420131968917482E+000  0.141194960877471E+004  0.667158967152052E+001  0.727887590584933E+002  0.328842494023564E+000 -0.706475902779180E+001 -0.706408209724660E+003
  0.420131968917482E+000  0.141193443980550E+004 -0.106502792925177E+001  0.712890607190340E+002  0.308961035952354E+000 -0.706475902779180E+001 -0.706400625240057E+003
  0.420131968917482E+000  0.141193377505505E+004 -0.824067566663288E+001  0.725052468517654E+002  0.313379061125325E+000 -0.706475902779180E+001 -0.706400292864832E+003
  0.420131968917482E+000  0.141193140006085E+004 -0.195787842916979E+001  0.648412347650311E+002  0.318662182379609E+000 -0.706475902779180E+001 -0.706399105367732E+003
  0.420131968917482E+000  0.141190996809000E+004 -0.649893074564232E+001  0.688669290249786E+002  0.308128088523112E+000 -0.706475902779180E+001 -0.706388389382308E+003
  0.420131968917482E+000  0.141188921263412E+004 -0.152525837149765E+002  0.635666536624775E+002  0.341343250880025E+000 -0.706475902779180E+001 -0.706378011654366E+003
  0.420131968917482E+000  0.141187793378370E+004 -0.129851534671385E+002  0.638427321714474E+002  0.326482330482371E+000 -0.706475902779180E+001 -0.706372372229153E+003
  0.420131968917482E+000  0.141186834730255E+004  0.167807920364886E+001  0.690324112249773E+002  0.347935374284335E+000 -0.706475902779180E+001 -0.706367578988582E+003
  0.420131968917482E+000  0.141186781977255E+004  0.107924096367137E+002  0.668205885429889E+002  0.311778463484624E+000 -0.706475902779180E+001 -0.706367315223580E+003
  0.420131968917482E+000  0.141186650803009E+004 -0.159501910034517E+002  0.647149592506053E+002  0.319991956977265E+000 -0.706475902779180E+001 -0.706366659352349E+003
  0.420131968917482E+000  0.141186540748925E+004 -0.269101310665576E-002  0.727296084109348E+002  0.316579153968622E+000 -0.706475902779180E+001 -0.706366109081932E+003
  0.420131968917482E+000  0.141186503555487E+004 -0.157732731927888E+001  0.702326748626554E+002  0.308251284427952E+000 -0.706475902779180E+001 -0.706365923114739E+003
  0.420131968917482E+000  0.141186107934482E+004 -0.826347750331490E+001  0.713120985840549E+002  0.309661930477577E+000 -0.706475902779180E+001 -0.706363945009713E+003
  0.420131968917482E+000  0.141185125983733E+004 -0.722143426516285E+001  0.699943860980493E+002  0.345021543110691E+000 -0.706475902779180E+001 -0.706359035255972E+003
  0.420131968917482E+000  0.141184774057843E+004  0.746112181074388E+000  0.723030441258024E+002  0.313378500788566E+000 -0.706475902779180E+001 -0.706357275626523E+003
  0.420131968917482E+000  0.141184689465336E+004 -0.180349919080545E+002  0.634561658117639E+002  0.334614885891424E+000 -0.706475902779180E+001 -0.706356852663987E+003
  0.420131968917482E+000  0.141183502924421E+004  0.415308060497851E+001  0.647101111802872E+002  0.347941684555090E+000 -0.706475902779180E+001 -0.706350919959411E+003
  0.420131968917482E+000  0.141181514275628E+004 -0.612621331814653E+001  0.652269698475231E+002  0.317804436696768E+000 -0.706475902779180E+001 -0.706340976715447E+003
  0.420131968917482E+000  0.141179714299418E+004 -0.709199094879786E+000  0.647776283750325E+002  0.320342539062234E+000 -0.706475902779180E+001 -0.706331976834395E+003
  0.420131968917482E+000  0.141179500361839E+004  0.144246514104524E+002  0.725083465733097E+002  0.315760257525892E+000 -0.706475902779180E+001 -0.706330907146498E+003
  0.420131968917482E+000  0.141179263641999E+004 -0.187637776631527E+002  0.635563930532210E+002  0.337277908695571E+000 -0.706475902779180E+001 -0.706329723547299E+003
  0.420131968917482E+000  0.141179061980007E+004  0.112058046741729E+001  0.645948254194906E+002  0.321539418758569E+000 -0.706475902779180E+001 -0.706328715237340E+003
  0.420131968917482E+000  0.141178783017187E+004  0.460276873437910E+001  0.722318294750356E+002  0.313825145930229E+000 -0.706475902779180E+001 -0.706327320423241E+003
  0.420131968917482E+000  0.141177957959591E+004 -0.301332053320952E+001  0.727640329281278E+002  0.320513118110100E+000 -0.706475902779180E+001 -0.706323195135260E+003
  0.420131968917482E+000  0.141177398412513E+004  0.289437491279019E+001  0.682847037881915E+002  0.309661140974120E+000 -0.706475902779180E+001 -0.706320397399871E+003
  0.420131968917482E+000  0.141175536069533E+004  0.148390218949721E+002  0.650587194331809E+002  0.319209934094311E+000 -0.706475902779180E+001 -0.706311085684971E+003
  0.420131968917482E+000  0.141174358495692E+004 -0.390092899744216E+001  0.677936721398089E+002  0.349245791861248E+000 -0.706475902779180E+001 -0.706305197815763E+003
  0.420131968917482E+000  0.141173328598496E+004 -0.479022109720565E+001  0.697311331931020E+002  0.309089410531508E+000 -0.706475902779180E+001 -0.706300048329786E+003
  0.420131968917482E+000  0.141173314973674E+004  0.777592032787232E+001  0.721554098063322E+002  0.332082690610637E+000 -0.706475902779180E+001 -0.706299980205674E+003
  0.420131968917482E+000  0.141172964331388E+004  0.110321566201136E+002  0.706456508444531E+002  0.309705229492135E+000 -0.706475902779180E+001 -0.706298226994244E+003
  0.420131968917482E+000  0.141169918851403E+004 -0.102450566033360E+002  0.676522344992959E+002  0.311174715729304E+000 -0.706475902779180E+001 -0.706282999594322E+003
  0.420131968917482E+000  0.141168135932789E+004 -0.131588686679116E+002  0.658466416281238E+002  0.316327365792578E+000 -0.706475902779180E+001 -0.706274085001252E+003
  0.420131968917482E+000  0.141167959712629E+004  0.136023206460468E+002  0.643870343816603E+002  0.344582438464722E+000 -0.706475902779180E+001 -0.706273203900452E+003
  0.420131968917482E+000  0.141167824005322E+004  0.805424853441915E+001  0.638008242038161E+002  0.338537510883720E+000 -0.706475902779180E+001 -0.706272525363916E+003
  0.420131968917482E+000  0.141166953324005E+004 -0.188535627347885E+002  0.639967192345417E+002  0.328687863315943E+000 -0.706475902779180E+001 -0.706268171957331E+003
  0.420131968917482E+000  0.141166320123401E+004  0.106517483365922E+002  0.672129842408202E+002  0.312341967075188E+000 -0.706475902779180E+001 -0.706265005954311E+003
  0.420131968917482E+000  0.141165943589308E+004 -0.757823827276945E+001  0.665720368287556E+002  0.314038732831193E+000 -0.706475902779180E+001 -0.706263123283848E+003
  0.420131968917482E+000  0.141165230711214E+004  0.755305050776329E+001  0.716552421313674E+002  0.335042179463141E+000 -0.706475902779180E+001 -0.706259558893377E+003
  0.420131968917482E+000  0.141165057908884E+004 -0.987055645061510E+001  0.695737345340665E+002  0.344776090860771E+000 -0.706475902779180E+001 -0.706258694881726E+003
  0.420131968917482E+000  0.141162539160180E+004  0.173695535835513E+002  0.692271962993334E+002  0.309982496949418E+000 -0.706475902779180E+001 -0.706246101138203E+003
  0.420131968917482E+000  0.141162087140984E+004 -0.165829916815662E+002  0.643825144643718E+002  0.325385558957464E+000 -0.706475902779180E+001 -0.706243841042223E+003
  0.420131968917482E+000  0.141161888550443E+004  0.180143687487519E+002  0.718558760906252E+002  0.333023642369115E+000 -0.706475902779180E+001 -0.706242848089519E+003
  0.420131968917482E+000  0.141161798432925E+004 -0.178966966006686E+002  0.724241787364156E+002  0.319502387130194E+000 -0.706475902779180E+001 -0.706242397501930E+003
  0.420131968917482E+000  0.141161194189202E+004  0.969276317388582E+001  0.658035498144103E+002  0.348219303148890E+000 -0.706475902779180E+001 -0.706239376283316E+003
  0.420131968917482E+000  0.141160365716973E+004 -0.184015401225160E+002  0.639015366480181E+002  0.332806657004612E+000 -0.706475902779180E+001 -0.706235233922169E+003
  0.420131968917482E+000  0.141159898544432E+004 -0.185951239234999E+002  0.715223450276878E+002  0.335305497871928E+000 -0.706475902779180E+001 -0.706232898059467E+003
  0.420131968917482E+000  0.141158123420639E+004 -0.151668912398723E+002  0.658816955715380E+002  0.317084424805163E+000 -0.706475902779180E+001 -0.706224022440499E+003
  0.420131968917482E+000  0.141158003982529E+004 -0.269605756176984E+001  0.708521125876100E+002  0.339058573816991E+000 -0.706475902779180E+001 -0.706223425249953E+003
  0.420131968917482E+000  0.141156193078668E+004 -0.151318163450322E+002  0.719016685589699E+002  0.331705302206751E+000 -0.706475902779180E+001 -0.706214370730643E+003
  0.420131968917482E+000  0.141155483884173E+004 -0.871508877353833E+001  0.720800244702702E+002  0.329648555762848E+000 -0.706475902779180E+001 -0.706210824758170E+003
  0.420131968917482E+000  0.141154949978001E+004  0.575522610815116E+001  0.662598720382333E+002  0.348120613661960E+000 -0.706475902779180E+001 -0.706208155227309E+003
  0.420131968917482E+000  0.141153935510254E+004 -0.467128012084565E+001  0.641467716392538E+002  0.339770058544667E+000 -0.706475902779180E+001 -0.706203082888573E+003
  0.420131968917482E+000  0.141153904081326E+004  0.106777491619062E+002  0.639985743004049E+002  0.336299618235162E+000 -0.706475902779180E+001 -0.706202925743935E+003
  0.420131968917482E+000  0.141153828054384E+004  0.896648831529259E+000  0.698378749867477E+002  0.342951751451807E+000 -0.706475902779180E+001 -0.706202545609227E+003
  0.420131968917482E+000  0.141152455336319E+004 -0.421890680208967E+001  0.723117878638194E+002  0.322074162155979E+000 -0.706475902779180E+001 -0.706195682018902E+003
  0.420131968917482E+000  0.141151713416985E+004 -0.104935774261347E+002  0.719321983983264E+002  0.316345711219046E+000 -0.706475902779180E+001 -0.706191972422228E+003
  0.420131968917482E+000  0.141151533037649E+004 -0.371803164572777E+001  0.709312897090952E+002  0.337953378210613E+000 -0.706475902779180E+001 -0.706191070525552E+003
  0.420131968917482E+000  0.141150642226534E+004  0.167615804142586E+002  0.641128496123739E+002  0.331680804272968E+000 -0.706475902779180E+001 -0.706186616469977E+003
  0.420131968917482E+000  0.141149823170360E+004  0.929455806767728E+001  0.653258687277750E+002  0.346063796751319E+000 -0.706475902779180E+001 -0.706182521189105E+003
  0.420131968917482E+000  0.141149767427531E+004  0.488509530976594E+001  0.694090161307803E+002  0.310968275923118E+000 -0.706475902779180E+001 -0.706182242474959E+003
  0.420131968917482E+000  0.141149377886062E+004  0.133937019088075E+002  0.640996172261951E+002  0.336880775865920E+000 -0.706475902779180E+001 -0.706180294767613E+003
  0.420131968917482E+000  0.141148997346640E+004  0.147249961322038E+001  0.708250462731225E+002  0.338244683846376E+000 -0.706475902779180E+001 -0.706178392070506E+003
  0.420131968917482E+000  0.141147803908177E+004 -0.163655195760871E+002  0.641224679119448E+002  0.336549658898679E+000 -0.706475902779180E+001 -0.706172424878191E+003
  0.420131968917482E+000  0.141147164085840E+004  0.554536146446582E+001  0.675402345532666E+002  0.347316324027289E+000 -0.706475902779180E+001 -0.706169225766506E+003
  0.420131968917482E+000  0.141146168383937E+004 -0.163416631757612E+002  0.642651707070859E+002  0.339057289082077E+000 -0.706475902779180E+001 -0.706164247256988E+003
  0.420131968917482E+000  0.141144852878208E+004  0.172201481667380E+002  0.703720348725493E+002  0.311933139572558E+000 -0.706475902779180E+001 -0.706157669728347E+003
  0.420131968917482E+000  0.141144794155212E+004  0.123723145624682E+002  0.721071861409313E+002  0.326001864128517E+000 -0.706475902779180E+001 -0.706157376113365E+003
  0.420131968917482E+000  0.141144670517903E+004  0.116395746202184E+001  0.695061648235943E+002  0.343226337008424E+000 -0.706475902779180E+001 -0.706156757926820E+003
  0.420131968917482E+000  0.141143316429244E+004 -0.389610747368152E+001  0.719527219040211E+002  0.318437711816110E+000 -0.706475902779180E+001 -0.706149987483524E+003
  0.420131968917482E+000  0.141143153187779E+004 -0.879534848979631E+001  0.649553589127556E+002  0.323618830541345E+000 -0.706475902779180E+001 -0.706149171276198E+003
  0.420131968917482E+000  0.141142857017961E+004 -0.182627977241541E+001  0.643039959980618E+002  0.338517309817411E+000 -0.706475902779180E+001 -0.706147690427110E+003
  0.420131968917482E+000  0.141142306941584E+004 -0.492941997318833E+001  0.712672717242600E+002  0.314297342019159E+000 -0.706475902779180E+001 -0.706144940045227E+003
  0.420131968917482E+000  0.141142171677399E+004  0.127866370000542E+002  0.707332332900745E+002  0.312807474739588E+000 -0.706475902779180E+001 -0.706144263724298E+003
  0.420131968917482E+000  0.141140434903826E+004  0.867696707798425E+001  0.649302572745277E+002  0.343346307216019E+000 -0.706475902779180E+001 -0.706135579856433E+003
  0.420131968917482E+000  0.141139955115285E+004  0.418486072344498E+001  0.693728854457749E+002  0.343204199019001E+000 -0.706475902779180E+001 -0.706133180913729E+003
  0.420131968917482E+000  0.141139366222109E+004  0.656990109049669E+001  0.672611949509475E+002  0.346818208854870E+000 -0.706475902779180E+001 -0.706130236447849E+003
  0.420131968917482E+000  0.141139329230738E+004 -0.913780022072652E+001  0.647936025430514E+002  0.325486672050546E+000 -0.706475902779180E+001 -0.706130051490997E+003
  0.420131968917482E+000  0.141139204409201E+004 -0.121988796180522E+002  0.718978723564144E+002  0.318960749914163E+000 -0.706475902779180E+001 -0.706129427383311E+003
  0.420131968917482E+000  0.141138867780888E+004  0.159178781275014E+002  0.649395454163314E+002  0.324369758186128E+000 -0.706475902779180E+001 -0.706127744241745E+003
  0.420131968917482E+000  0.141138608224385E+004 -0.830199327649278E+001  0.647413323717186E+002  0.341940171356606E+000 -0.706475902779180E+001 -0.706126446459229E+003
  0.420131968917482E+000  0.141138098489499E+004  0.105168366493707E+002  0.704152926254237E+002  0.339096608173309E+000 -0.706475902779180E+001 -0.706123897784798E+003
  0.420131968917482E+000  0.141137488789212E+004  0.290916594862649E+001  0.643936720041917E+002  0.338009186995011E+000 -0.706475902779180E+001 -0.706120849283366E+003
  0.420131968917482E+000  0.141137265968877E+004  0.129304031840188E+001  0.685192669193949E+002  0.312502481552612E+000 -0.706475902779180E+001 -0.706119735181690E+003
  0.420131968917482E+000  0.141136476171642E+004 -0.732002924590815E+001  0.719534812243962E+002  0.325792344249281E+000 -0.706475902779180E+001 -0.706115786195514E+003
  0.420131968917482E+000  0.141136341167165E+004 -0.130085955753616E+002  0.682707288674712E+002  0.345444931222968E+000 -0.706475902779180E+001 -0.706115111173133E+003
  0.420131968917482E+000  0.141136174681191E+004 -0.101079997978701E+002  0.702054667339577E+002  0.312591575988274E+000 -0.706475902779180E+001 -0.706114278743261E+003
  0.420131968917482E+000  0.141136069198248E+004 -0.130615859928665E+002  0.647412069762360E+002  0.326565494151420E+000 -0.706475902779180E+001 -0.706113751328545E+003
  0.420131968917482E+000  0.141135967697582E+004 -0.848450008155434E+001  0.699503059713213E+002  0.340851962804179E+000 -0.706475902779180E+001 -0.706113243825217E+003
  0.420131968917482E+000  0.141135825209227E+004 -0.154153586045527E+002  0.711033150085593E+002  0.334992993189328E+000 -0.706475902779180E+001 -0.706112531383442E+003
  0.420131968917482E+000  0.141135538882963E+004 -0.173816749055849E+002  0.703211418056519E+002  0.312804109824544E+000 -0.706475902779180E+001 -0.706111099752121E+003
  0.420131968917482E+000  0.141135139411652E+004  0.120939235051433E+002  0.665905784189838E+002  0.346434825835562E+000 -0.706475902779180E+001 -0.706109102395563E+003
  0.420131968917482E+000  0.141135097025129E+004  0.869216166166618E+001  0.644377935009776E+002  0.337834626637234E+000 -0.706475902779180E+001 -0.706108890462949E+003
  0.420131968917482E+000  0.141135035385806E+004  0.933305540734284E+001  0.670676245937497E+002  0.315277825579464E+000 -0.706475902779180E+001 -0.706108582266336E+003
  0.420131968917482E+000  0.141134380614256E+004  0.511830107552047E+000  0.699412820045417E+002  0.312515795960869E+000 -0.706475902779180E+001 -0.706105308408586E+003
  0.420131968917482E+000  0.141134378110221E+004 -0.277714392247433E+001  0.645645973018115E+002  0.329013272671693E+000 -0.706475902779180E+001 -0.706105295888411E+003
  0.420131968917482E+000  0.141133447841035E+004  0.164755320899752E+002  0.653158700938099E+002  0.343966279672061E+000 -0.706475902779180E+001 -0.706100644542480E+003
  0.420131968917482E+000  0.141133088509176E+004  0.140522813006855E+002  0.718457437910003E+002  0.326787410418074E+000 -0.706475902779180E+001 -0.706098847883185E+003
  0.420131968917482E+000  0.141132998989331E+004  0.121558065067401E+002  0.649057571859542E+002  0.325610836213504E+000 -0.706475902779180E+001 -0.706098400283962E+003
  0.420131968917482E+000  0.141132180609246E+004  0.850122302930884E+001  0.653752531473367E+002  0.344000696316841E+000 -0.706475902779180E+001 -0.706094308383537E+003
  0.420131968917482E+000  0.141131594760328E+004  0.162837874689051E+002  0.650807225747637E+002  0.324427764121556E+000 -0.706475902779180E+001 -0.706091379138947E+003
  0.420131968917482E+000  0.141130778581649E+004  0.969822149363911E+001  0.649949654691162E+002  0.325239957016341E+000 -0.706475902779180E+001 -0.706087298245550E+003
  0.420131968917482E+000  0.141130027521789E+004  0.131359969204900E+002  0.645713614658650E+002  0.338130356037487E+000 -0.706475902779180E+001 -0.706083542946249E+003
  0.420131968917482E+000  0.141129791724315E+004  0.813141584499546E+001  0.673832472084460E+002  0.345864697385354E+000 -0.706475902779180E+001 -0.706082363958880E+003
  0.420131968917482E+000  0.141129483295070E+004 -0.594885201759439E+000  0.703057417333836E+002  0.338656172940512E+000 -0.706475902779180E+001 -0.706080821812655E+003
  0.420131968917482E+000  0.141128819426064E+004 -0.746273552352631E+001  0.705537617830552E+002  0.337352254459936E+000 -0.706475902779180E+001 -0.706077502467624E+003
  0.420131968917482E+000  0.141127814704125E+004  0.215598091090105E+001  0.716190349340861E+002  0.328826445444258E+000 -0.706475902779180E+001 -0.706072478857932E+003
  0.420131968917482E+000  0.141127535357663E+004  0.897884895185909E+001  0.703265595107677E+002  0.313673860652602E+000 -0.706475902779180E+001 -0.706071082125619E+003
  0.420131968917482E+000  0.141126632953847E+004 -0.108339958058177E+002  0.717565497622468E+002  0.325652190094324E+000 -0.706475902779180E+001 -0.706066570106540E+003
  0.420131968917482E+000  0.141125796958260E+004  0.970112879494051E+001  0.711388363108283E+002  0.333228392300291E+000 -0.706475902779180E+001 -0.706062390128605E+003
  0.420131968917482E+000  0.141125099399402E+004  0.178188663084217E+002  0.717526736183755E+002  0.323494711924763E+000 -0.706475902779180E+001 -0.706058902334315E+003
  0.420131968917482E+000  0.141124541501743E+004 -0.139837409276069E+002  0.678134925245191E+002  0.314597306454422E+000 -0.706475902779180E+001 -0.706056112846021E+003
  0.420131968917482E+000  0.141124391645387E+004 -0.136263844897506E+002  0.700520097947373E+002  0.313643968290853E+000 -0.706475902779180E+001 -0.706055363564241E+003
  0.420131968917482E+000  0.141123022136284E+004 -0.916512929845630E+001  0.663215427929741E+002  0.344941244176349E+000 -0.706475902779180E+001 -0.706048516018724E+003
  0.420131968917482E+000  0.141122551632922E+004 -0.980082639103217E+001  0.716095124009090E+002  0.320688107976451E+000 -0.706475902779180E+001 -0.706046163501918E+003
  0.420131968917482E+000  0.141121087701778E+004  0.169685568141353E+001  0.715614133254209E+002  0.327509220025598E+000 -0.706475902779180E+001 -0.706038843846196E+003
  0.420131968917482E+000  0.141121077117897E+004  0.161872241063338E+002  0.674833414095657E+002  0.344954678190512E+000 -0.706475902779180E+001 -0.706038790926789E+003
  0.420131968917482E+000  0.141120805822008E+004  0.153584628342846E+001  0.670293096694032E+002  0.316727551630206E+000 -0.706475902779180E+001 -0.706037434447347E+003
  0.420131968917482E+000  0.141120715738201E+004 -0.159657130884393E+002  0.702170510493949E+002  0.314276339477298E+000 -0.706475902779180E+001 -0.706036984028312E+003
  0.420131968917482E+000  0.141120540527597E+004  0.165829967077230E+002  0.664601758482549E+002  0.318587390462391E+000 -0.706475902779180E+001 -0.706036107975290E+003
  0.420131968917482E+000  0.141119407910408E+004  0.368860524771440E+001  0.655421226002807E+002  0.323109060590854E+000 -0.706475902779180E+001 -0.706030444889348E+003
  0.420131968917482E+000  0.141118591208138E+004  0.104378766537815E+002  0.652862467596772E+002  0.325011708680285E+000 -0.706475902779180E+001 -0.706026361377996E+003
  0.420131968917482E+000  0.141118364824141E+004  0.863324045690943E+001  0.647153702100902E+002  0.333569808449190E+000 -0.706475902779180E+001 -0.706025229458008E+003
  0.420131968917482E+000  0.141118293366839E+004 -0.150288803780676E+002  0.673000914472996E+002  0.344771522420658E+000 -0.706475902779180E+001 -0.706024872171499E+003
  0.420131968917482E+000  0.141117376527537E+004  0.559404428400656E+001  0.708780945289358E+002  0.316422639970907E+000 -0.706475902779180E+001 -0.706020287974991E+003
  0.420131968917482E+000  0.141117323923693E+004  0.133777091845091E+002  0.649602364987015E+002  0.338944148456733E+000 -0.706475902779180E+001 -0.706020024955773E+003
  0.420131968917482E+000  0.141116846919525E+004 -0.117005246813870E+001  0.689081333561882E+002  0.314078783437647E+000 -0.706475902779180E+001 -0.706017639934933E+003
  0.420131968917482E+000  0.141116213114516E+004  0.115605202607917E+002  0.650496139961376E+002  0.327664160228191E+000 -0.706475902779180E+001 -0.706014470909884E+003
  0.420131968917482E+000  0.141115985040898E+004 -0.553273441569659E+001  0.650689693726249E+002  0.327507096829944E+000 -0.706475902779180E+001 -0.706013330541795E+003
  0.420131968917482E+000  0.141115285558577E+004 -0.796313630350313E+001  0.648389346733672E+002  0.331223337680158E+000 -0.706475902779180E+001 -0.706009833130189E+003
  0.420131968917482E+000  0.141114940510675E+004 -0.722481628321689E+001  0.652456025485960E+002  0.326023452834261E+000 -0.706475902779180E+001 -0.706008107890679E+003
  0.420131968917482E+000  0.141114851776003E+004  0.135955817914633E+002  0.701338654161094E+002  0.314839881995532E+000 -0.706475902779180E+001 -0.706007664217322E+003
  0.420131968917482E+000  0.141114677788305E+004 -0.110988751726298E+002  0.703266420686687E+002  0.315207829180976E+000 -0.706475902779180E+001 -0.706006794278833E+003
  0.420131968917482E+000  0.141114438160732E+004  0.984357137514422E+001  0.696779803230003E+002  0.339593557129367E+000 -0.706475902779180E+001 -0.706005596140963E+003
  0.420131968917482E+000  0.141114241629201E+004 -0.148760471923223E+001  0.649341605946605E+002  0.337649416705577E+000 -0.706475902779180E+001 -0.706004613483308E+003
  0.420131968917482E+000  0.141113926311198E+004  0.105145619266414E+002  0.680856978676009E+002  0.315163885144213E+000 -0.706475902779180E+001 -0.706003036893294E+003
  0.420131968917482E+000  0.141113423437582E+004  0.163311960950760E+002  0.669740850971118E+002  0.317643909210628E+000 -0.706475902779180E+001 -0.706000522525213E+003
  0.420131968917482E+000  0.141113355333297E+004  0.476538230001744E+001  0.712075826702437E+002  0.330114912999951E+000 -0.706475902779180E+001 -0.706000182003788E+003
  0.420131968917482E+000  0.141112812576344E+004  0.652159168933296E+001  0.692675247230615E+002  0.340818651532216E+000 -0.706475902779180E+001 -0.705997468219026E+003
  0.420131968917482E+000  0.141112659838273E+004  0.873450539159535E+001  0.673471186726040E+002  0.344162905054525E+000 -0.706475902779180E+001 -0.705996704528669E+003
  0.420131968917482E+000  0.141112075117775E+004  0.453943468230591E+000  0.686370194501209E+002  0.342403449412503E+000 -0.706475902779180E+001 -0.705993780926180E+003
  0.420131968917482E+000  0.141112073845762E+004 -0.981882919253545E+001  0.711331698514165E+002  0.330609072690588E+000 -0.706475902779180E+001 -0.705993774566113E+003
  0.420131968917482E+000  0.141111438063368E+004  0.123670343277462E+002  0.685673221805616E+002  0.314845572649614E+000 -0.706475902779180E+001 -0.705990595654147E+003
  0.420131968917482E+000  0.141110044836063E+004 -0.173603778285713E+002  0.650353330903236E+002  0.337476600829409E+000 -0.706475902779180E+001 -0.705983629517619E+003
  0.420131968917482E+000  0.141109920685573E+004 -0.922463385319725E+001  0.665143688326990E+002  0.319584192585642E+000 -0.706475902779180E+001 -0.705983008765172E+003
  0.420131968917482E+000  0.141109650018741E+004 -0.104238887319781E+002  0.710162096598907E+002  0.318523431201151E+000 -0.706475902779180E+001 -0.705981655431012E+003
  0.420131968917482E+000  0.141108967911264E+004  0.129528942707436E+002  0.651518089051736E+002  0.328386151031623E+000 -0.706475902779180E+001 -0.705978244893627E+003
  0.420131968917482E+000  0.141108309010571E+004 -0.302752028463083E+001  0.710585609653507E+002  0.330484000339627E+000 -0.706475902779180E+001 -0.705974950390163E+003
  0.420131968917482E+000  0.141106522536425E+004  0.337790042116271E+000  0.712188385819570E+002  0.327785188459677E+000 -0.706475902779180E+001 -0.705966018019432E+003
  0.420131968917482E+000  0.141106497462477E+004  0.379016189324335E+001  0.657768738260873E+002  0.323620798270802E+000 -0.706475902779180E+001 -0.705965892649690E+003
  0.420131968917482E+000  0.141106354585770E+004  0.817075777388574E+001  0.689723209625549E+002  0.340965688405911E+000 -0.706475902779180E+001 -0.705965178266158E+003
  0.420131968917482E+000  0.141106105525429E+004  0.220846942444125E+001  0.678126986614783E+002  0.343114651983246E+000 -0.706475902779180E+001 -0.705963932964451E+003
  0.420131968917482E+000  0.141104675474248E+004 -0.112634462157246E+002  0.654218792594987E+002  0.339519738655180E+000 -0.706475902779180E+001 -0.705956782708547E+003
  0.420131968917482E+000  0.141104394034304E+004 -0.757365316890931E+001  0.707226943425622E+002  0.317997201415857E+000 -0.706475902779180E+001 -0.705955375508825E+003
  0.420131968917482E+000  0.141103721874942E+004  0.603626819495118E+001  0.664006203694607E+002  0.342679729770104E+000 -0.706475902779180E+001 -0.705952014712017E+003
  0.420131968917482E+000  0.141102804817032E+004 -0.151681667606287E+002  0.666635894229037E+002  0.342882434677982E+000 -0.706475902779180E+001 -0.705947429422464E+003
  0.420131968917482E+000  0.141102210820423E+004 -0.262206979117083E+001  0.665493521344602E+002  0.320394258423816E+000 -0.706475902779180E+001 -0.705944459439421E+003
  0.420131968917482E+000  0.141101292649844E+004  0.186056052305902E+002  0.711803436856658E+002  0.324903591310436E+000 -0.706475902779180E+001 -0.705939868586528E+003
  0.420131968917482E+000  0.141100723497276E+004  0.130296221108108E+002  0.652655559696606E+002  0.329542023847108E+000 -0.706475902779180E+001 -0.705937022823683E+003
  0.420131968917482E+000  0.141100313337589E+004  0.400309217438857E+001  0.692531323945999E+002  0.339427952067625E+000 -0.706475902779180E+001 -0.705934972025252E+003
  0.420131968917482E+000  0.141099329260998E+004 -0.100837201715803E+002  0.709374703754953E+002  0.320575661479193E+000 -0.706475902779180E+001 -0.705930051642297E+003
  0.420131968917482E+000  0.141099318070319E+004 -0.595708337439760E+001  0.710174745077463E+002  0.321471475569446E+000 -0.706475902779180E+001 -0.705929995688902E+003
  0.420131968917482E+000  0.141098894575336E+004 -0.120348915030296E+002  0.658246956658392E+002  0.340427896531284E+000 -0.706475902779180E+001 -0.705927878213987E+003
  0.420131968917482E+000  0.141098332221179E+004 -0.848022292733181E+001  0.700962153565856E+002  0.316968742708957E+000 -0.706475902779180E+001 -0.705925066443201E+003
  0.420131968917482E+000  0.141097959128333E+004 -0.141721901162284E+002  0.693698889663420E+002  0.338741137210587E+000 -0.706475902779180E+001 -0.705923200978972E+003
  0.420131968917482E+000  0.141097278399191E+004 -0.155745348693923E+002  0.700719071887906E+002  0.335617778383209E+000 -0.706475902779180E+001 -0.705919797333262E+003
  0.420131968917482E+000  0.141097200982413E+004 -0.943342214684803E+001  0.659568995253525E+002  0.340623010921014E+000 -0.706475902779180E+001 -0.705919410249369E+003
  0.420131968917482E+000  0.141096542319690E+004 -0.329559680729087E+001  0.668457388061974E+002  0.342221112269901E+000 -0.706475902779180E+001 -0.705916116935755E+003
  0.420131968917482E+000  0.141096430917855E+004  0.192609663206798E+002  0.710462738924996E+002  0.325486769096718E+000 -0.706475902779180E+001 -0.705915559926582E+003
  0.420131968917482E+000  0.141095667113981E+004 -0.135736842167152E+002  0.678073453456080E+002  0.317567431134567E+000 -0.706475902779180E+001 -0.705911740907210E+003
  0.420131968917482E+000  0.141095464840452E+004  0.146032039964052E+002  0.659384887340715E+002  0.340240385782294E+000 -0.706475902779180E+001 -0.705910729539565E+003
  0.420131968917482E+000  0.141095426936115E+004 -0.157768134505527E+002  0.705561782783849E+002  0.318989542898533E+000 -0.706475902779180E+001 -0.705910540017880E+003
  0.420131968917482E+000  0.141095348021508E+004  0.187316675541917E+002  0.654534956559781E+002  0.328793684646611E+000 -0.706475902779180E+001 -0.705910145444847E+003
  0.420131968917482E+000  0.141095043692016E+004 -0.392903979095440E+000  0.665057972006980E+002  0.321537860949824E+000 -0.706475902779180E+001 -0.705908623797388E+003
  0.420131968917482E+000  0.141094916009728E+004  0.140140919345957E+002  0.689619885853756E+002  0.339650490233150E+000 -0.706475902779180E+001 -0.705907985385944E+003
  0.420131968917482E+000  0.141093769966433E+004  0.146298280742385E+002  0.666752295207046E+002  0.341682600230138E+000 -0.706475902779180E+001 -0.705902255169472E+003
  0.420131968917482E+000  0.141093379213346E+004  0.833681274522165E+001  0.685468864425379E+002  0.316828418006627E+000 -0.706475902779180E+001 -0.705900301404036E+003
  0.420131968917482E+000  0.141093021621407E+004  0.120244137169304E+002  0.666064828021779E+002  0.341486347684353E+000 -0.706475902779180E+001 -0.705898513444339E+003
  0.420131968917482E+000  0.141092938493202E+004  0.139630676770329E+002  0.664966733664568E+002  0.341303474329788E+000 -0.706475902779180E+001 -0.705898097803316E+003
  0.420131968917482E+000  0.141092331100696E+004  0.671029707553199E+001  0.663294337576853E+002  0.322766820738599E+000 -0.706475902779180E+001 -0.705895060840783E+003
  0.420131968917482E+000  0.141091152162366E+004 -0.885528617986707E+001  0.663763544164808E+002  0.340789417122123E+000 -0.706475902779180E+001 -0.705889166149137E+003
  0.420131968917482E+000  0.141091150532175E+004 -0.141861250901044E+002  0.690610032569524E+002  0.338880544774035E+000 -0.706475902779180E+001 -0.705889157998182E+003
  0.420131968917482E+000  0.141091052871273E+004 -0.154907332376464E+002  0.681375221429096E+002  0.317561881963735E+000 -0.706475902779180E+001 -0.705888669693673E+003
  0.420131968917482E+000  0.141091034671484E+004 -0.113828023442148E+002  0.680928910504541E+002  0.317628899563348E+000 -0.706475902779180E+001 -0.705888578694727E+003
  0.420131968917482E+000  0.141091022557850E+004  0.173136647209165E+002  0.698884219569631E+002  0.335590114777399E+000 -0.706475902779180E+001 -0.705888518126554E+003
  0.420131968917482E+000  0.141090078334457E+004 -0.173668200781022E+002  0.708385083618898E+002  0.323351457519828E+000 -0.706475902779180E+001 -0.705883797009593E+003
  0.420131968917482E+000  0.141089730358721E+004 -0.193412872029892E+002  0.662373608093949E+002  0.323685038497963E+000 -0.706475902779180E+001 -0.705882057130911E+003
  0.420131968917482E+000  0.141089381904631E+004  0.154701849655892E+002  0.692506700083635E+002  0.317165051177018E+000 -0.706475902779180E+001 -0.705880314860458E+003
  0.420131968917482E+000  0.141088583845337E+004  0.547220095427497E+001  0.655577081885789E+002  0.329974752669310E+000 -0.706475902779180E+001 -0.705876324563990E+003
  0.420131968917482E+000  0.141087791500617E+004 -0.977146055276626E+001  0.704983033201944E+002  0.320464784901572E+000 -0.706475902779180E+001 -0.705872362840392E+003
  0.420131968917482E+000  0.141086365759776E+004 -0.776429962152534E+001  0.705470180046717E+002  0.329921775374805E+000 -0.706475902779180E+001 -0.705865234136186E+003
  0.420131968917482E+000  0.141086086566527E+004 -0.362250055143915E+001  0.701637556831866E+002  0.319243884705296E+000 -0.706475902779180E+001 -0.705863838169938E+003
  0.420131968917482E+000  0.141085775384384E+004  0.192328436287507E+002  0.659558876980044E+002  0.338267327584205E+000 -0.706475902779180E+001 -0.705862282259224E+003
  0.420131968917482E+000  0.141085767127077E+004  0.722508555247688E+001  0.658943505629288E+002  0.337906636794833E+000 -0.706475902779180E+001 -0.705862240972690E+003
  0.420131968917482E+000  0.141085184779474E+004  0.134473629844270E+002  0.660174826092301E+002  0.326013401244986E+000 -0.706475902779180E+001 -0.705859329234677E+003
  0.420131968917482E+000  0.141085025363433E+004  0.418200191223815E+001  0.706963062865911E+002  0.323881039090007E+000 -0.706475902779180E+001 -0.705858532154469E+003
  0.420131968917482E+000  0.141084832767704E+004  0.257959535901448E+001  0.704492110373863E+002  0.320962147859892E+000 -0.706475902779180E+001 -0.705857569175826E+003
  0.420131968917482E+000  0.141084830082944E+004 -0.108198357287079E+002  0.694949794781085E+002  0.317993878994590E+000 -0.706475902779180E+001 -0.705857555752026E+003
  0.420131968917482E+000  0.141084205995238E+004  0.164128645932759E+002  0.668475337460320E+002  0.340462021830458E+000 -0.706475902779180E+001 -0.705854435313497E+003
  0.420131968917482E+000  0.141083890366946E+004 -0.649370252147530E+001  0.702201312254850E+002  0.332239353585762E+000 -0.706475902779180E+001 -0.705852857172036E+003
  0.420131968917482E+000  0.141082938403111E+004  0.117938436394399E+002  0.692821220055839E+002  0.336984798244849E+000 -0.706475902779180E+001 -0.705848097352859E+003
  0.420131968917482E+000  0.141082262666460E+004 -0.308600997968185E+001  0.657261411693369E+002  0.334979182344662E+000 -0.706475902779180E+001 -0.705844718669605E+003
  0.420131968917482E+000  0.141082114021534E+004  0.148285945642728E+002  0.706270179590579E+002  0.325786160254000E+000 -0.706475902779180E+001 -0.705843975444974E+003
  0.420131968917482E+000  0.141081562717494E+004 -0.126208917443399E+002  0.697682238618264E+002  0.318967103321552E+000 -0.706475902779180E+001 -0.705841218924776E+003
  0.420131968917482E+000  0.141081306579063E+004 -0.855622770033222E+000  0.683131304994143E+002  0.318574005334846E+000 -0.706475902779180E+001 -0.705839938232621E+003
  0.420131968917482E+000  0.141080720575796E+004  0.184446516148407E+002  0.658943632357362E+002  0.328423325361873E+000 -0.706475902779180E+001 -0.705837008216285E+003
  0.420131968917482E+000  0.141080136056162E+004  0.170808609024443E+002  0.674516139704741E+002  0.340110600187160E+000 -0.706475902779180E+001 -0.705834085618115E+003
  0.420131968917482E+000  0.141079423122215E+004  0.150590076742050E+002  0.667020886859502E+002  0.339456960646076E+000 -0.706475902779180E+001 -0.705830520948383E+003
  0.420131968917482E+000  0.141079341501780E+004 -0.107630851413404E+002  0.659491662332283E+002  0.336338028745379E+000 -0.706475902779180E+001 -0.705830112846205E+003
  0.420131968917482E+000  0.141078884806469E+004  0.286257414500158E+001  0.671936714596515E+002  0.321291121417021E+000 -0.706475902779180E+001 -0.705827829369648E+003
  0.420131968917482E+000  0.141078423228930E+004 -0.110889329477320E+000  0.657940631319360E+002  0.331838230925784E+000 -0.706475902779180E+001 -0.705825521481957E+003
  0.420131968917482E+000  0.141078183376875E+004 -0.101440791898703E+002  0.702274358824089E+002  0.330681239914368E+000 -0.706475902779180E+001 -0.705824322221681E+003
  0.420131968917482E+000  0.141077905854595E+004 -0.329417498933507E+001  0.667745051022800E+002  0.323044978319322E+000 -0.706475902779180E+001 -0.705822934610281E+003
  0.420131968917482E+000  0.141077898788382E+004  0.183164400839862E+002  0.664024380262076E+002  0.338398759800394E+000 -0.706475902779180E+001 -0.705822899279217E+003
  0.420131968917482E+000  0.141077874458621E+004  0.908757247911634E+000  0.659839371864709E+002  0.336104172600930E+000 -0.706475902779180E+001 -0.705822777630412E+003
  0.420131968917482E+000  0.141077052227749E+004  0.805278478559611E+001  0.690169917495930E+002  0.318847288910201E+000 -0.706475902779180E+001 -0.705818666476052E+003
  0.420131968917482E+000  0.141076895211032E+004  0.158831756841701E+002  0.695392314209302E+002  0.319356396040920E+000 -0.706475902779180E+001 -0.705817881392465E+003
  0.420131968917482E+000  0.141076774331197E+004 -0.749190464041052E+001  0.695437317796078E+002  0.319385839396773E+000 -0.706475902779180E+001 -0.705817276993289E+003
  0.420131968917482E+000  0.141076723228408E+004  0.125261138799720E+002  0.661498560886102E+002  0.327115256057569E+000 -0.706475902779180E+001 -0.705817021479344E+003
  0.420131968917482E+000  0.141076210956353E+004  0.139424419330156E+002  0.668615124120239E+002  0.339144748106123E+000 -0.706475902779180E+001 -0.705814460119072E+003
  0.420131968917482E+000  0.141075974858988E+004 -0.182594958168185E+002  0.704224835452532E+002  0.325445824618847E+000 -0.706475902779180E+001 -0.705813279632248E+003
  0.420131968917482E+000  0.141075907582933E+004  0.852038448214121E+001  0.695139743089754E+002  0.334842358436294E+000 -0.706475902779180E+001 -0.705812943251972E+003
  0.420131968917482E+000  0.141075062658856E+004  0.190761089111397E+002  0.699305693867364E+002  0.332263915298001E+000 -0.706475902779180E+001 -0.705808718631587E+003
  0.420131968917482E+000  0.141074808112665E+004 -0.188953118523014E+002  0.667375624657075E+002  0.338663836714111E+000 -0.706475902779180E+001 -0.705807445900629E+003
  0.420131968917482E+000  0.141073965985594E+004  0.870606139052433E+001  0.663527262643619E+002  0.326240896751636E+000 -0.706475902779180E+001 -0.705803235265277E+003
  0.420131968917482E+000  0.141073445280522E+004 -0.175657063681596E+002  0.666894650779938E+002  0.338281561373080E+000 -0.706475902779180E+001 -0.705800631739916E+003
  0.420131968917482E+000  0.141072930855332E+004  0.106056115719883E+002  0.674858675398327E+002  0.321345850063571E+000 -0.706475902779180E+001 -0.705798059613963E+003
  0.420131968917482E+000  0.141072655412485E+004  0.686072120705835E+001  0.666384719566335E+002  0.337980635914119E+000 -0.706475902779180E+001 -0.705796682399731E+003
  0.420131968917482E+000  0.141072354307440E+004  0.145678824734440E+002  0.674551726824178E+002  0.321524783887431E+000 -0.706475902779180E+001 -0.705795176874503E+003
  0.420131968917482E+000  0.141156843173713E+004 -0.118459978095488E+002  0.661447456855813E+002  0.334219536424594E+000 -0.706475902779180E+001 -0.705784215868565E+003
  0.420131968917482E+000  0.141154929711776E+004 -0.953596736703675E+001  0.678703772467291E+002  0.338007959563996E+000 -0.706475902779180E+001 -0.705774648558878E+003
  0.420131968917482E+000  0.141152780816527E+004 -0.853263894898884E+001  0.689792004652540E+002  0.335211847032080E+000 -0.706475902779180E+001 -0.705763904082633E+003
  0.420131968917482E+000  0.141152727921038E+004 -0.745248328249513E+001  0.689251493965989E+002  0.335392266650649E+000 -0.706475902779180E+001 -0.705763639605192E+003
  0.420131968917482E+000  0.141152434285998E+004 -0.104593305131155E+002  0.663943654523901E+002  0.334734353540682E+000 -0.706475902779180E+001 -0.705762171429992E+003
  0.420131968917482E+000  0.141151845695954E+004 -0.200862252229806E+001  0.687179779413938E+002  0.320821500389550E+000 -0.706475902779180E+001 -0.705759228479769E+003
  0.420131968917482E+000  0.141151491153912E+004 -0.244224576445173E+001  0.662999389919855E+002  0.332389523384354E+000 -0.706475902779180E+001 -0.705757455769561E+003
  0.420131968917482E+000  0.141149671082317E+004 -0.176920605373361E+002  0.666640300279321E+002  0.335470734722413E+000 -0.706475902779180E+001 -0.705748355411585E+003
  0.420131968917482E+000  0.141147272342096E+004 -0.562929465508407E+001  0.664832077699933E+002  0.331528765593551E+000 -0.706475902779180E+001 -0.705736361710478E+003
  0.420131968917482E+000  0.141145489908052E+004 -0.228342318785893E+001  0.681717232168966E+002  0.322449475346246E+000 -0.706475902779180E+001 -0.705727449540261E+003
  0.420131968917482E+000  0.141144824299599E+004 -0.100844797494854E+002  0.685996243518128E+002  0.322267757613609E+000 -0.706475902779180E+001 -0.705724121497993E+003
  0.420131968917482E+000  0.141144581992717E+004 -0.176353212448721E+002  0.696541996315382E+002  0.325954006130094E+000 -0.706475902779180E+001 -0.705722909963585E+003
  0.420131968917482E+000  0.141143681053395E+004 -0.181981611941505E+002  0.680542083085224E+002  0.335607862551095E+000 -0.706475902779180E+001 -0.705718405266974E+003
  0.420131968917482E+000  0.141142496913045E+004 -0.153989370182992E+002  0.690806050380683E+002  0.323293330184628E+000 -0.706475902779180E+001 -0.705712484565224E+003
  0.420131968917482E+000  0.141140761056472E+004 -0.181187092205504E+002  0.691983527429356E+002  0.330932268142811E+000 -0.706475902779180E+001 -0.705703805282360E+003
  0.420131968917482E+000  0.141138018617116E+004 -0.133051063276111E+002  0.672279078891094E+002  0.327570682369375E+000 -0.706475902779180E+001 -0.705690093085578E+003
  0.420131968917482E+000  0.141137333521756E+004 -0.102718847017041E+002  0.687139004065058E+002  0.324380799239653E+000 -0.706475902779180E+001 -0.705686667608782E+003
  0.420131968917482E+000  0.141136766557075E+004 -0.111994440201732E+002  0.674914620187992E+002  0.333638493399667E+000 -0.706475902779180E+001 -0.705683832785373E+003
  0.420131968917482E+000  0.141136535486639E+004 -0.723333558580353E+001  0.677692185976961E+002  0.333824075622375E+000 -0.706475902779180E+001 -0.705682677433193E+003
  0.420131968917482E+000  0.141135374615937E+004 -0.533986913747226E+001  0.690716960436095E+002  0.327201729246726E+000 -0.706475902779180E+001 -0.705676873079683E+003
  0.420131968917482E+000  0.141134848423270E+004 -0.184253426385202E+002  0.686990125387116E+002  0.331317876962768E+000 -0.706475902779180E+001 -0.705674242116351E+003
  0.420131968917482E+000  0.141133805036991E+004 -0.359972341825749E+001  0.675821554235707E+002  0.332412959181744E+000 -0.706475902779180E+001 -0.705669025184954E+003
  0.420131968917482E+000  0.141133326132672E+004 -0.169941217423998E+002  0.674167206529294E+002  0.331046184278136E+000 -0.706475902779180E+001 -0.705666630663361E+003
  0.420131968917482E+000  0.141132589843166E+004 -0.106481515875675E+002  0.676269090159367E+002  0.331733909305772E+000 -0.706475902779180E+001 -0.705662949215828E+003
  0.420131968917482E+000  0.141131386486436E+004 -0.490764460750629E+001  0.677144354739607E+002  0.328610082707314E+000 -0.706475902779180E+001 -0.705656932432182E+003
