  0.100000000000000E+001  0.142401568872754E+004  0.167167869734547E+002  0.581953444287541E+002  0.387402994955206E+000 -0.706475902779180E+001 -0.712007844363769E+003
  0.100000000000000E+001  0.142300460624246E+004  0.944511713483242E+001  0.625735112220905E+002  0.392637622247394E+000 -0.706475902779180E+001 -0.711502303121232E+003
  0.100000000000000E+001  0.142244201531559E+004 -0.117089632744094E+001  0.808409031279779E+002  0.290745648780476E+000 -0.706475902779180E+001 -0.711221007657796E+003
  0.100000000000000E+001  0.141727328616656E+004  0.102478355328950E+001  0.610854295386702E+002  0.368102848104104E+000 -0.706475902779180E+001 -0.708636643083280E+003
  0.100000000000000E+001  0.142232709691835E+004  0.505762410257672E+001  0.574072171513447E+002  0.311002051868138E+000 -0.706475902779180E+001 -0.711163548459173E+003
  0.100000000000000E+001  0.141731229563694E+004  0.859440661520744E+001  0.591823478018399E+002  0.356749885586120E+000 -0.706475902779180E+001 -0.708656147818470E+003
  0.100000000000000E+001  0.141731448447216E+004  0.802860492222970E+001  0.730231832263713E+002  0.287376937130896E+000 -0.706475902779180E+001 -0.708657242236080E+003
  0.100000000000000E+001  0.141733571264316E+004  0.707064399099305E+001  0.614410444623819E+002  0.369629195397362E+000 -0.706475902779180E+001 -0.708667856321582E+003
  0.100000000000000E+001  0.141734860934795E+004  0.106661689692324E+002  0.731085356638122E+002  0.287321162517044E+000 -0.706475902779180E+001 -0.708674304673975E+003
  0.100000000000000E+001  0.141747134245038E+004 -0.171881014877634E+002  0.748571441721462E+002  0.349504671595811E+000 -0.706475902779180E+001 -0.708735671225188E+003
  0.100000000000000E+001  0.141751536418942E+004  0.153423148862183E+002  0.775466005129394E+002  0.328546948195749E+000 -0.706475902779180E+001 -0.708757682094711E+003
  0.100000000000000E+001  0.141756912544567E+004  0.178771126066206E+002  0.617412492363134E+002  0.305709063979472E+000 -0.706475902779180E+001 -0.708784562722836E+003
  0.100000000000000E+001  0.141760933027883E+004  0.746840794982484E+001  0.585024159906887E+002  0.333138366065836E+000 -0.706475902779180E+001 -0.708804665139413E+003
  0.100000000000000E+001  0.142000132417361E+004 -0.383977922769980E+001  0.591262903397640E+002  0.309566235134838E+000 -0.706475902779180E+001 -0.710000662086803E+003
  0.100000000000000E+001  0.141998209198017E+004  0.869183492397126E+001  0.693874300345161E+002  0.279738173150978E+000 -0.706475902779180E+001 -0.709991045990085E+003
  0.100000000000000E+001  0.141762493903119E+004 -0.174312547464928E+002  0.582999541547962E+002  0.340693848739188E+000 -0.706475902779180E+001 -0.708812469515597E+003
  0.100000000000000E+001  0.141763639215366E+004  0.251536325404197E+001  0.658576938109896E+002  0.375407849749142E+000 -0.706475902779180E+001 -0.708818196076830E+003
  0.100000000000000E+001  0.141962603012508E+004 -0.188549912316951E+002  0.655037973326288E+002  0.286556163885727E+000 -0.706475902779180E+001 -0.709813015062542E+003
  0.100000000000000E+001  0.141763886625415E+004  0.166417647609577E+002  0.723101653574121E+002  0.285806749249894E+000 -0.706475902779180E+001 -0.708819433127077E+003
  0.100000000000000E+001  0.141344555874402E+004 -0.283805630899265E+001  0.739985692902641E+002  0.318871704995381E+000 -0.706475902779180E+001 -0.706722779372009E+003
  0.100000000000000E+001  0.141765823371058E+004  0.121713779451335E+002  0.582694692837700E+002  0.342042728827292E+000 -0.706475902779180E+001 -0.708829116855291E+003
  0.100000000000000E+001  0.141778731371912E+004 -0.886398901517560E+001  0.611509535714256E+002  0.370994115848719E+000 -0.706475902779180E+001 -0.708893656859562E+003
  0.100000000000000E+001  0.141932863686313E+004  0.146580286626935E+002  0.607743858979013E+002  0.303155352544022E+000 -0.706475902779180E+001 -0.709664318431564E+003
  0.100000000000000E+001  0.141923166052278E+004 -0.525923986442451E+001  0.692365868410371E+002  0.376227295800445E+000 -0.706475902779180E+001 -0.709615830261389E+003
  0.100000000000000E+001  0.141784035162271E+004 -0.847222607353135E+000  0.783505581441951E+002  0.318667890061085E+000 -0.706475902779180E+001 -0.708920175811355E+003
  0.100000000000000E+001  0.141784425639537E+004 -0.167021178936978E+002  0.782907316992322E+002  0.305822122322830E+000 -0.706475902779180E+001 -0.708922128197683E+003
  0.100000000000000E+001  0.141785090296462E+004 -0.110685473665201E+002  0.596870576920013E+002  0.364939699490905E+000 -0.706475902779180E+001 -0.708925451482311E+003
  0.100000000000000E+001  0.141898178920103E+004  0.922018018897191E+001  0.666525092095722E+002  0.379487726374677E+000 -0.706475902779180E+001 -0.709490894600514E+003
  0.100000000000000E+001  0.141798107662089E+004  0.144366220745383E+002  0.736422747607786E+002  0.285509164388148E+000 -0.706475902779180E+001 -0.708990538310447E+003
  0.100000000000000E+001  0.141880367250786E+004  0.115000974644805E+001  0.579592569065127E+002  0.327619101426159E+000 -0.706475902779180E+001 -0.709401836253928E+003
  0.100000000000000E+001  0.141807826594856E+004  0.118846381185261E+001  0.627060636898546E+002  0.375777475826173E+000 -0.706475902779180E+001 -0.709039132974278E+003
  0.100000000000000E+001  0.141863730677081E+004  0.948566001204387E+001  0.789563682659412E+002  0.318201195267512E+000 -0.706475902779180E+001 -0.709318653385406E+003
  0.100000000000000E+001  0.141863286291967E+004  0.220598831002000E+001  0.588314309287722E+002  0.319117523545252E+000 -0.706475902779180E+001 -0.709316431459837E+003
  0.100000000000000E+001  0.141808108321543E+004  0.746721553749666E+000  0.710907762119398E+002  0.367604623564160E+000 -0.706475902779180E+001 -0.709040541607717E+003
  0.100000000000000E+001  0.141851447285044E+004 -0.168770424257685E+002  0.605194721562020E+002  0.372458987413558E+000 -0.706475902779180E+001 -0.709257236425218E+003
  0.100000000000000E+001  0.141816022923414E+004 -0.339880394783438E+001  0.731130790369646E+002  0.284446059423319E+000 -0.706475902779180E+001 -0.709080114617068E+003
  0.100000000000000E+001  0.141843348489347E+004  0.185918521733812E+002  0.669475047589015E+002  0.377344516410984E+000 -0.706475902779180E+001 -0.709216742446735E+003
  0.100000000000000E+001  0.141816516173480E+004  0.229105840524984E+001  0.579791162232646E+002  0.348624620923087E+000 -0.706475902779180E+001 -0.709082580867402E+003
  0.100000000000000E+001  0.141836285346521E+004  0.417685872691482E+001  0.729323597886643E+002  0.362199046389085E+000 -0.706475902779180E+001 -0.709181426732605E+003
  0.100000000000000E+001  0.141818428204146E+004  0.571617096937842E+000  0.689572603897654E+002  0.285247261692330E+000 -0.706475902779180E+001 -0.709092141020729E+003
  0.100000000000000E+001  0.141830309860664E+004  0.185671978159320E+002  0.711184245872014E+002  0.283567581868144E+000 -0.706475902779180E+001 -0.709151549303322E+003
  0.100000000000000E+001  0.141348832762883E+004  0.149614177714498E+002  0.740073283504453E+002  0.323538829274405E+000 -0.706475902779180E+001 -0.706744163814417E+003
  0.100000000000000E+001  0.141711553444658E+004 -0.401346335452676E+001  0.634055769881273E+002  0.372646900671234E+000 -0.706475902779180E+001 -0.708557767223290E+003
  0.100000000000000E+001  0.141704326977950E+004 -0.158225030198407E+002  0.587749297376624E+002  0.338654958415154E+000 -0.706475902779180E+001 -0.708521634889752E+003
  0.100000000000000E+001  0.141699694141352E+004 -0.169776089912540E+002  0.742794054533679E+002  0.290219711457389E+000 -0.706475902779180E+001 -0.708498470706759E+003
  0.100000000000000E+001  0.141696441836646E+004 -0.741198151152261E+001  0.766786605096850E+002  0.333464554962746E+000 -0.706475902779180E+001 -0.708482209183231E+003
  0.100000000000000E+001  0.141694982468045E+004  0.186377947203095E+002  0.593956323237744E+002  0.326612796504995E+000 -0.706475902779180E+001 -0.708474912340223E+003
  0.100000000000000E+001  0.141685843390783E+004  0.173242757222620E+002  0.589114992676429E+002  0.343160860133498E+000 -0.706475902779180E+001 -0.708429216953917E+003
  0.100000000000000E+001  0.141685277171320E+004  0.453892175158780E+001  0.593224714834016E+002  0.353271641466446E+000 -0.706475902779180E+001 -0.708426385856598E+003
  0.100000000000000E+001  0.141678583590724E+004  0.423686539147235E+001  0.592986244004365E+002  0.329987158089791E+000 -0.706475902779180E+001 -0.708392917953619E+003
  0.100000000000000E+001  0.141673576391768E+004 -0.900233126834785E+001  0.599994535186474E+002  0.321792058264497E+000 -0.706475902779180E+001 -0.708367881958839E+003
  0.100000000000000E+001  0.141668954233097E+004 -0.175574172256445E+002  0.752399668993060E+002  0.343180460823557E+000 -0.706475902779180E+001 -0.708344771165484E+003
  0.100000000000000E+001  0.141664136243598E+004 -0.577042442935137E+001  0.596863841905218E+002  0.326065799513413E+000 -0.706475902779180E+001 -0.708320681217989E+003
  0.100000000000000E+001  0.141662470904905E+004 -0.302385624630938E+001  0.724444308387535E+002  0.357277040342380E+000 -0.706475902779180E+001 -0.708312354524525E+003
  0.100000000000000E+001  0.141659944936001E+004 -0.749581735555942E+001  0.600416677645560E+002  0.358019693755105E+000 -0.706475902779180E+001 -0.708299724680005E+003
  0.100000000000000E+001  0.141652945489728E+004  0.156888318410076E+001  0.771037570823963E+002  0.306725357361013E+000 -0.706475902779180E+001 -0.708264727448639E+003
  0.100000000000000E+001  0.141648852033676E+004  0.153247887376546E+002  0.762219986852823E+002  0.299299320882618E+000 -0.706475902779180E+001 -0.708244260168379E+003
  0.100000000000000E+001  0.141630440176621E+004 -0.175043895962343E+002  0.648085896340844E+002  0.299266789755108E+000 -0.706475902779180E+001 -0.708152200883103E+003
  0.100000000000000E+001  0.141620464886713E+004  0.306869370531689E+001  0.676430522583442E+002  0.368287000501358E+000 -0.706475902779180E+001 -0.708102324433565E+003
  0.100000000000000E+001  0.141616354086760E+004  0.125996272963599E+002  0.671644098832812E+002  0.368704025603047E+000 -0.706475902779180E+001 -0.708081770433800E+003
  0.100000000000000E+001  0.141615978942840E+004  0.809802467076609E+001  0.759772963394551E+002  0.333871794203737E+000 -0.706475902779180E+001 -0.708079894714201E+003
  0.100000000000000E+001  0.141615946952939E+004 -0.906158585309413E+001  0.685014442782406E+002  0.366745402820435E+000 -0.706475902779180E+001 -0.708079734764693E+003
  0.100000000000000E+001  0.141614640708449E+004 -0.144805511233559E+002  0.655143182880387E+002  0.297950018414232E+000 -0.706475902779180E+001 -0.708073203542246E+003
  0.100000000000000E+001  0.141609987328332E+004  0.453868372993960E+001  0.723494660651357E+002  0.355361533874558E+000 -0.706475902779180E+001 -0.708049936641661E+003
  0.100000000000000E+001  0.141608198771423E+004 -0.599486216177132E+001  0.695640246295234E+002  0.291723379526721E+000 -0.706475902779180E+001 -0.708040993857117E+003
  0.100000000000000E+001  0.141605888255414E+004 -0.121245675608534E+002  0.687454833683350E+002  0.292522015960230E+000 -0.706475902779180E+001 -0.708029441277068E+003
  0.100000000000000E+001  0.141604462659768E+004 -0.150891937954519E+001  0.759842448330181E+002  0.301337079090594E+000 -0.706475902779180E+001 -0.708022313298838E+003
  0.100000000000000E+001  0.141603467493902E+004  0.325907236434178E+001  0.596277277587413E+002  0.343226168702203E+000 -0.706475902779180E+001 -0.708017337469509E+003
  0.100000000000000E+001  0.141602587139237E+004 -0.129432935973028E+002  0.636038051941707E+002  0.367917584582975E+000 -0.706475902779180E+001 -0.708012935696185E+003
  0.100000000000000E+001  0.141598876825411E+004  0.100637366484873E+002  0.686500113271679E+002  0.365776351444123E+000 -0.706475902779180E+001 -0.707994384127056E+003
  0.100000000000000E+001  0.141597333729758E+004  0.347578426579763E+001  0.626862204359971E+002  0.308623554550737E+000 -0.706475902779180E+001 -0.707986668648792E+003
  0.100000000000000E+001  0.141590559592739E+004  0.185519640079130E+002  0.615171108372368E+002  0.315525587614419E+000 -0.706475902779180E+001 -0.707952797963694E+003
  0.100000000000000E+001  0.141579670527070E+004  0.105223109256332E+002  0.611033351972530E+002  0.319279558825210E+000 -0.706475902779180E+001 -0.707898352635348E+003
  0.100000000000000E+001  0.141352106643429E+004 -0.942060424831751E+001  0.699906030928656E+002  0.350544995088299E+000 -0.706475902779180E+001 -0.706760533217143E+003
  0.100000000000000E+001  0.141576684404180E+004 -0.138642528187679E+002  0.736056806247102E+002  0.294652420348678E+000 -0.706475902779180E+001 -0.707883422020902E+003
  0.100000000000000E+001  0.141574997617398E+004  0.790282647729215E+001  0.599021252453015E+002  0.343753233628596E+000 -0.706475902779180E+001 -0.707874988086991E+003
  0.100000000000000E+001  0.141570080689502E+004 -0.113398780114408E+002  0.742486293563636E+002  0.343852523469540E+000 -0.706475902779180E+001 -0.707850403447508E+003
  0.100000000000000E+001  0.141565886713676E+004 -0.361132726071018E+001  0.739841291811340E+002  0.345198259312030E+000 -0.706475902779180E+001 -0.707829433568380E+003
  0.100000000000000E+001  0.141564152372479E+004  0.176659024693935E+002  0.648516734247320E+002  0.301854571972305E+000 -0.706475902779180E+001 -0.707820761862395E+003
  0.100000000000000E+001  0.141564055459103E+004  0.192821358089131E+002  0.700187518665881E+002  0.293147149926967E+000 -0.706475902779180E+001 -0.707820277295516E+003
  0.100000000000000E+001  0.141559541384083E+004 -0.623795061004589E+001  0.615692990254869E+002  0.359697393074440E+000 -0.706475902779180E+001 -0.707797706920417E+003
  0.100000000000000E+001  0.141550950821779E+004  0.860265995741875E+001  0.760946889439409E+002  0.325551377065508E+000 -0.706475902779180E+001 -0.707754754108897E+003
  0.100000000000000E+001  0.141549162635377E+004  0.191371248620780E+002  0.601607430602522E+002  0.344111473115607E+000 -0.706475902779180E+001 -0.707745813176883E+003
  0.100000000000000E+001  0.141548484157413E+004 -0.838329468624213E+000  0.601116906593332E+002  0.339889406910688E+000 -0.706475902779180E+001 -0.707742420787066E+003
  0.100000000000000E+001  0.141543967424067E+004 -0.637445812529384E+001  0.601614194213934E+002  0.341362960589577E+000 -0.706475902779180E+001 -0.707719837120333E+003
  0.100000000000000E+001  0.141543512413292E+004 -0.407269131795982E+001  0.625313791683551E+002  0.312280790479117E+000 -0.706475902779180E+001 -0.707717562066458E+003
  0.100000000000000E+001  0.141352168580048E+004  0.179541579040423E+002  0.713196011563556E+002  0.345685883181745E+000 -0.706475902779180E+001 -0.706760842900240E+003
  0.100000000000000E+001  0.141539915908089E+004 -0.772540140903143E+000  0.609212592812013E+002  0.324336202718120E+000 -0.706475902779180E+001 -0.707699579540443E+003
  0.100000000000000E+001  0.141538365262305E+004  0.119458717212950E+002  0.618725656137957E+002  0.316556953241210E+000 -0.706475902779180E+001 -0.707691826311524E+003
  0.100000000000000E+001  0.141538102188816E+004  0.693826015244879E+001  0.627710652937123E+002  0.311329076377102E+000 -0.706475902779180E+001 -0.707690510944078E+003
  0.100000000000000E+001  0.141353129902535E+004  0.152615278509871E+002  0.726785714665075E+002  0.338524393526448E+000 -0.706475902779180E+001 -0.706765649512677E+003
  0.100000000000000E+001  0.141537336235632E+004 -0.159630165204207E+002  0.758873938432560E+002  0.307449743478435E+000 -0.706475902779180E+001 -0.707686681178158E+003
  0.100000000000000E+001  0.141532623906749E+004  0.108860382381578E+001  0.606707208099932E+002  0.350475874474154E+000 -0.706475902779180E+001 -0.707663119533745E+003
  0.100000000000000E+001  0.141528552464919E+004  0.136016204321251E+002  0.633960083019331E+002  0.308874504486703E+000 -0.706475902779180E+001 -0.707642762324593E+003
  0.100000000000000E+001  0.141528315270873E+004  0.139668911370292E+002  0.754784319641995E+002  0.304773115190991E+000 -0.706475902779180E+001 -0.707641576354364E+003
  0.100000000000000E+001  0.141525530213266E+004  0.170095880183009E+002  0.640635493902094E+002  0.306292661118121E+000 -0.706475902779180E+001 -0.707627651066332E+003
  0.100000000000000E+001  0.141524232609082E+004  0.150539871118009E+001  0.677931774095867E+002  0.364007807562957E+000 -0.706475902779180E+001 -0.707621163045410E+003
  0.100000000000000E+001  0.141521091751589E+004  0.183034161321497E+002  0.729566748176035E+002  0.296322938674971E+000 -0.706475902779180E+001 -0.707605458757946E+003
  0.100000000000000E+001  0.141520641896630E+004 -0.835339247633986E+000  0.604660768099238E+002  0.334415676354042E+000 -0.706475902779180E+001 -0.707603209483148E+003
  0.100000000000000E+001  0.141516884731856E+004 -0.999616538328713E+001  0.697933715680821E+002  0.359690502360940E+000 -0.706475902779180E+001 -0.707584423659279E+003
  0.100000000000000E+001  0.141511416275615E+004  0.107603545475767E+002  0.755432889865169E+002  0.328223627108185E+000 -0.706475902779180E+001 -0.707557081378073E+003
  0.100000000000000E+001  0.141510587616616E+004  0.132989916877041E+001  0.759656808296632E+002  0.315336971966743E+000 -0.706475902779180E+001 -0.707552938083079E+003
  0.100000000000000E+001  0.141509389580439E+004 -0.191970010715212E+002  0.698998901170179E+002  0.359066196691165E+000 -0.706475902779180E+001 -0.707546947902194E+003
  0.100000000000000E+001  0.141506788173906E+004 -0.111057005751628E+002  0.658339666779749E+002  0.301571331062609E+000 -0.706475902779180E+001 -0.707533940869531E+003
  0.100000000000000E+001  0.141499052344668E+004  0.845518555512473E+001  0.654876981037136E+002  0.302851498627653E+000 -0.706475902779180E+001 -0.707495261723339E+003
  0.100000000000000E+001  0.141498210272952E+004  0.141206457414435E+002  0.651386610948917E+002  0.303915584262999E+000 -0.706475902779180E+001 -0.707491051364762E+003
  0.100000000000000E+001  0.141497916545201E+004  0.122479158790716E+001  0.610370788986516E+002  0.327755100706513E+000 -0.706475902779180E+001 -0.707489582726004E+003
  0.100000000000000E+001  0.141495326248081E+004  0.105734558230399E+002  0.630075842415056E+002  0.312576438433758E+000 -0.706475902779180E+001 -0.707476631240405E+003
  0.100000000000000E+001  0.141494996509418E+004  0.208011008345092E+001  0.757447669360539E+002  0.321414240492043E+000 -0.706475902779180E+001 -0.707474982547090E+003
  0.100000000000000E+001  0.141493829167456E+004 -0.584974649611251E+001  0.715441444391946E+002  0.353006508662947E+000 -0.706475902779180E+001 -0.707469145837282E+003
  0.100000000000000E+001  0.141493625309657E+004 -0.192670558037256E+002  0.630718422650657E+002  0.360871547291280E+000 -0.706475902779180E+001 -0.707468126548287E+003
  0.100000000000000E+001  0.141493363285259E+004  0.152001170337885E+002  0.721945503503595E+002  0.350312772118275E+000 -0.706475902779180E+001 -0.707466816426293E+003
  0.100000000000000E+001  0.141492559669685E+004  0.107482713049323E+002  0.628116760073992E+002  0.360029748754267E+000 -0.706475902779180E+001 -0.707462798348427E+003
  0.100000000000000E+001  0.141487021065711E+004 -0.348851267219326E+001  0.709916329323681E+002  0.296274813455326E+000 -0.706475902779180E+001 -0.707435105328553E+003
  0.100000000000000E+001  0.141486130881868E+004 -0.467515727711953E+001  0.716848855473279E+002  0.296628505836920E+000 -0.706475902779180E+001 -0.707430654409341E+003
  0.100000000000000E+001  0.141484486191725E+004  0.104974471948722E-001  0.630458628139008E+002  0.360212719218850E+000 -0.706475902779180E+001 -0.707422430958625E+003
  0.100000000000000E+001  0.141478668441024E+004 -0.864072998585317E+001  0.669817198904155E+002  0.362820357876469E+000 -0.706475902779180E+001 -0.707393342205122E+003
  0.100000000000000E+001  0.141469377664832E+004  0.827761757698805E+001  0.619338135934937E+002  0.321396637895529E+000 -0.706475902779180E+001 -0.707346888324159E+003
  0.100000000000000E+001  0.141465204991809E+004 -0.151345049160394E+002  0.740746379819822E+002  0.302534644168340E+000 -0.706475902779180E+001 -0.707326024959045E+003
  0.100000000000000E+001  0.141465076360224E+004 -0.790638317679558E+001  0.657076275821514E+002  0.362647887869830E+000 -0.706475902779180E+001 -0.707325381801122E+003
  0.100000000000000E+001  0.141457842815861E+004  0.119554724173597E+002  0.751540101712591E+002  0.326034102984373E+000 -0.706475902779180E+001 -0.707289214079304E+003
  0.100000000000000E+001  0.141456538567944E+004 -0.276860766097260E+001  0.709713413080463E+002  0.297702547976245E+000 -0.706475902779180E+001 -0.707282692839721E+003
  0.100000000000000E+001  0.141353419445776E+004 -0.834055371571243E+001  0.741241410894200E+002  0.320810402165186E+000 -0.706475902779180E+001 -0.706767097228879E+003
  0.100000000000000E+001  0.141357845285065E+004 -0.133844902741487E+002  0.622134549277174E+002  0.339227417818203E+000 -0.706475902779180E+001 -0.706789226425324E+003
  0.100000000000000E+001  0.141454779103737E+004 -0.170086826932855E+002  0.610603469689768E+002  0.339642355968245E+000 -0.706475902779180E+001 -0.707273895518687E+003
  0.100000000000000E+001  0.141454491807208E+004  0.118022453222421E+002  0.648259256660669E+002  0.361656475920814E+000 -0.706475902779180E+001 -0.707272459036040E+003
  0.100000000000000E+001  0.141451082855883E+004 -0.138778266433500E+002  0.632117335481471E+002  0.314247556550248E+000 -0.706475902779180E+001 -0.707255414279413E+003
  0.100000000000000E+001  0.141358982360890E+004 -0.192752897696231E+002  0.741463519285757E+002  0.316551181948329E+000 -0.706475902779180E+001 -0.706794911804452E+003
  0.100000000000000E+001  0.141445452912905E+004 -0.158082355029547E+001  0.691157432087728E+002  0.298723603917458E+000 -0.706475902779180E+001 -0.707227264564525E+003
  0.100000000000000E+001  0.141444206899616E+004 -0.141302364101857E+002  0.642295927219747E+002  0.360322972153060E+000 -0.706475902779180E+001 -0.707221034498079E+003
  0.100000000000000E+001  0.141360818769239E+004  0.165189846220890E+002  0.724235709116689E+002  0.340742997585893E+000 -0.706475902779180E+001 -0.706804093846196E+003
  0.100000000000000E+001  0.141443551351084E+004  0.138647654532007E+002  0.658152492332924E+002  0.304555956789392E+000 -0.706475902779180E+001 -0.707217756755420E+003
  0.100000000000000E+001  0.141441032382239E+004 -0.361746425525987E+001  0.746010760591876E+002  0.307514601143819E+000 -0.706475902779180E+001 -0.707205161911197E+003
  0.100000000000000E+001  0.141439215670173E+004  0.978426751865697E+000  0.659860142121919E+002  0.361303872928935E+000 -0.706475902779180E+001 -0.707196078350863E+003
  0.100000000000000E+001  0.141438578808049E+004  0.186357681708942E+002  0.612440610738205E+002  0.336970341298004E+000 -0.706475902779180E+001 -0.707192894040243E+003
  0.100000000000000E+001  0.141435126129396E+004 -0.320686325344711E+001  0.651371676659848E+002  0.307026987871762E+000 -0.706475902779180E+001 -0.707175630646979E+003
  0.100000000000000E+001  0.141434631082642E+004 -0.260426079857830E+001  0.681186294265989E+002  0.300298863931306E+000 -0.706475902779180E+001 -0.707173155413211E+003
  0.100000000000000E+001  0.141431409319107E+004  0.146665618655247E+002  0.623322325588003E+002  0.353157637624790E+000 -0.706475902779180E+001 -0.707157046595536E+003
  0.100000000000000E+001  0.141430364055480E+004  0.139584014324384E+002  0.728656434521504E+002  0.343256730363501E+000 -0.706475902779180E+001 -0.707151820277402E+003
  0.100000000000000E+001  0.141429241009306E+004 -0.225727494022447E+001  0.652433190480941E+002  0.306988735343467E+000 -0.706475902779180E+001 -0.707146205046530E+003
  0.100000000000000E+001  0.141428819591811E+004 -0.103560319193815E+002  0.690162223115796E+002  0.299578939618018E+000 -0.706475902779180E+001 -0.707144097959057E+003
  0.100000000000000E+001  0.141426261351634E+004 -0.626654581845108E+001  0.734324897430850E+002  0.303093842785470E+000 -0.706475902779180E+001 -0.707131306758172E+003
  0.100000000000000E+001  0.141425198868267E+004 -0.139589965709965E+002  0.674972976072801E+002  0.359652821354756E+000 -0.706475902779180E+001 -0.707125994341337E+003
  0.100000000000000E+001  0.141425014614554E+004 -0.194127536452688E+002  0.675254629495587E+002  0.301657389127738E+000 -0.706475902779180E+001 -0.707125073072769E+003
  0.100000000000000E+001  0.141424755040074E+004 -0.116981603993192E+002  0.734707541017071E+002  0.303332393297592E+000 -0.706475902779180E+001 -0.707123775200371E+003
  0.100000000000000E+001  0.141423253665539E+004 -0.283585041497457E+001  0.633238548616277E+002  0.315503866361687E+000 -0.706475902779180E+001 -0.707116268327695E+003
  0.100000000000000E+001  0.141421884225521E+004  0.418517977011661E+001  0.749923439419712E+002  0.318559776783297E+000 -0.706475902779180E+001 -0.707109421127607E+003
  0.100000000000000E+001  0.141419086657963E+004 -0.174500514486095E+002  0.698633460126710E+002  0.354713121377786E+000 -0.706475902779180E+001 -0.707095433289813E+003
  0.100000000000000E+001  0.141418704955029E+004 -0.120184721793108E+002  0.717808678194966E+002  0.347911756126692E+000 -0.706475902779180E+001 -0.707093524775144E+003
  0.100000000000000E+001  0.141417501122481E+004  0.279519750882665E+001  0.664077135779089E+002  0.304313901867135E+000 -0.706475902779180E+001 -0.707087505612405E+003
  0.100000000000000E+001  0.141417187372590E+004 -0.142145854190609E+002  0.631442873169796E+002  0.355748808788291E+000 -0.706475902779180E+001 -0.707085936862952E+003
  0.100000000000000E+001  0.141415764236920E+004  0.109130849862848E+002  0.737455420582434E+002  0.336351752187262E+000 -0.706475902779180E+001 -0.707078821184602E+003
  0.100000000000000E+001  0.141415034037353E+004 -0.292269917985874E+001  0.697757596789993E+002  0.299773219446697E+000 -0.706475902779180E+001 -0.707075170186765E+003
  0.100000000000000E+001  0.141414599401684E+004 -0.165359899791976E+002  0.678854526721973E+002  0.358609105782815E+000 -0.706475902779180E+001 -0.707072997008421E+003
  0.100000000000000E+001  0.141414128544908E+004  0.121500015143229E+002  0.622042700027791E+002  0.350472612309295E+000 -0.706475902779180E+001 -0.707070642724538E+003
  0.100000000000000E+001  0.141413854439631E+004  0.171766612188474E+001  0.633105562376424E+002  0.316246677951083E+000 -0.706475902779180E+001 -0.707069272198153E+003
  0.100000000000000E+001  0.141413700686809E+004  0.193871388842370E+002  0.705229724574916E+002  0.352424948838013E+000 -0.706475902779180E+001 -0.707068503434047E+003
  0.100000000000000E+001  0.141413392760391E+004  0.372388965799394E+001  0.673309063948783E+002  0.359217759875654E+000 -0.706475902779180E+001 -0.707066963801953E+003
  0.100000000000000E+001  0.141412609031120E+004 -0.149731399442618E+002  0.720882363687140E+002  0.346131532778368E+000 -0.706475902779180E+001 -0.707063045155598E+003
  0.100000000000000E+001  0.141412501811143E+004  0.122905242603094E+002  0.748503555429062E+002  0.316195392605739E+000 -0.706475902779180E+001 -0.707062509055714E+003
  0.100000000000000E+001  0.141412361313458E+004 -0.833366107410416E+001  0.621646310872041E+002  0.349947875225293E+000 -0.706475902779180E+001 -0.707061806567292E+003
  0.100000000000000E+001  0.141408588870106E+004 -0.112474773656198E+002  0.715909260599394E+002  0.300574726854002E+000 -0.706475902779180E+001 -0.707042944350532E+003
  0.100000000000000E+001  0.141406776381412E+004  0.582360930329569E+001  0.638196322534018E+002  0.314008106971752E+000 -0.706475902779180E+001 -0.707033881907058E+003
  0.100000000000000E+001  0.141405341863632E+004 -0.151256027208415E+002  0.686342039357521E+002  0.301069764032894E+000 -0.706475902779180E+001 -0.707026709318159E+003
  0.100000000000000E+001  0.141402768624773E+004 -0.145809726212288E+001  0.747248537100967E+002  0.321837031992813E+000 -0.706475902779180E+001 -0.707013843123864E+003
  0.100000000000000E+001  0.141402420244488E+004  0.101739193792162E+002  0.747306338348293E+002  0.316533240212172E+000 -0.706475902779180E+001 -0.707012101222440E+003
  0.100000000000000E+001  0.141400550419293E+004  0.176529532820022E+002  0.743457682144820E+002  0.328764062949730E+000 -0.706475902779180E+001 -0.707002752096466E+003
  0.100000000000000E+001  0.141397311416882E+004 -0.145296127153652E+002  0.622182324444694E+002  0.326328614992100E+000 -0.706475902779180E+001 -0.706986557084409E+003
  0.100000000000000E+001  0.141394793373968E+004  0.103575224643229E+002  0.619761057650291E+002  0.345296747351850E+000 -0.706475902779180E+001 -0.706973966869839E+003
  0.100000000000000E+001  0.141394199034462E+004 -0.849358148935379E+001  0.744757185784623E+002  0.325624434659288E+000 -0.706475902779180E+001 -0.706970995172312E+003
  0.100000000000000E+001  0.141392541513238E+004 -0.143818827171871E+002  0.726636976763893E+002  0.303314911672404E+000 -0.706475902779180E+001 -0.706962707566189E+003
  0.100000000000000E+001  0.141390772257387E+004 -0.328720472501298E+001  0.696217829041397E+002  0.301056968731446E+000 -0.706475902779180E+001 -0.706953861286937E+003
  0.100000000000000E+001  0.141389775724301E+004 -0.675054037201413E+001  0.628337118423851E+002  0.351949695873905E+000 -0.706475902779180E+001 -0.706948878621506E+003
  0.100000000000000E+001  0.141389502434233E+004  0.435798541659889E+001  0.709494070175808E+002  0.349546133414232E+000 -0.706475902779180E+001 -0.706947512171167E+003
  0.100000000000000E+001  0.141362885252465E+004  0.471970297063366E+001  0.622401525355920E+002  0.332324376653033E+000 -0.706475902779180E+001 -0.706814426262324E+003
  0.100000000000000E+001  0.141388265795808E+004  0.162136215231290E+002  0.619877343345152E+002  0.331199277942364E+000 -0.706475902779180E+001 -0.706941328979042E+003
  0.100000000000000E+001  0.141388252435287E+004 -0.586026034961201E+000  0.740409122553369E+002  0.330734655463781E+000 -0.706475902779180E+001 -0.706941262176433E+003
  0.100000000000000E+001  0.141385497171642E+004 -0.127318742495371E+001  0.683252811364259E+002  0.356370991287875E+000 -0.706475902779180E+001 -0.706927485858212E+003
  0.100000000000000E+001  0.141363590530067E+004  0.172046506102458E+002  0.655461636944798E+002  0.356814044080839E+000 -0.706475902779180E+001 -0.706817952650333E+003
  0.100000000000000E+001  0.141379707456507E+004  0.555102000871491E+001  0.741013888132194E+002  0.311289301534142E+000 -0.706475902779180E+001 -0.706898537282534E+003
  0.100000000000000E+001  0.141375562191023E+004 -0.909048658936078E+001  0.719845008860516E+002  0.344194283891585E+000 -0.706475902779180E+001 -0.706877810955113E+003
  0.100000000000000E+001  0.141374444411068E+004 -0.191798560990846E+002  0.744007320688321E+002  0.320515437820374E+000 -0.706475902779180E+001 -0.706872222055339E+003
  0.100000000000000E+001  0.141374048955606E+004 -0.176316413569938E+002  0.640905023576945E+002  0.314905368369421E+000 -0.706475902779180E+001 -0.706870244778031E+003
  0.100000000000000E+001  0.141370208719196E+004  0.165219307844152E+002  0.726790296241774E+002  0.304982842087708E+000 -0.706475902779180E+001 -0.706851043595982E+003
  0.100000000000000E+001  0.141366332251769E+004 -0.497428488876832E+001  0.631760389440118E+002  0.321035027879431E+000 -0.706475902779180E+001 -0.706831661258843E+003
  0.100000000000000E+001  0.141364137513087E+004 -0.341012414715731E+001  0.630865123155649E+002  0.321935112233128E+000 -0.706475902779180E+001 -0.706820687565437E+003
  0.100000000000000E+001  0.141363849171701E+004  0.122398698410686E+002  0.642061110675965E+002  0.354874668274269E+000 -0.706475902779180E+001 -0.706819245858503E+003
  0.100000000000000E+001  0.141343647763682E+004  0.756197872612492E+001  0.729096387485701E+002  0.308035472762670E+000 -0.706475902779180E+001 -0.706718238818410E+003
  0.100000000000000E+001  0.141342849487839E+004 -0.125344013415437E+002  0.684505156853727E+002  0.304535435182997E+000 -0.706475902779180E+001 -0.706714247439197E+003
  0.100000000000000E+001  0.141342539127721E+004  0.181895976823265E+002  0.635065115868267E+002  0.350637948302053E+000 -0.706475902779180E+001 -0.706712695638603E+003
  0.100000000000000E+001  0.141342404710403E+004  0.276129082446024E+001  0.734905315609613E+002  0.311444018991248E+000 -0.706475902779180E+001 -0.706712023552017E+003
  0.100000000000000E+001  0.141340001386645E+004  0.988211074318182E+001  0.668931146584147E+002  0.355387262104997E+000 -0.706475902779180E+001 -0.706700006933226E+003
  0.100000000000000E+001  0.141339132504612E+004  0.102314265967523E+002  0.659358508905495E+002  0.355427107498825E+000 -0.706475902779180E+001 -0.706695662523058E+003
  0.100000000000000E+001  0.141338535363928E+004 -0.399272760681811E+001  0.729425910304097E+002  0.308682226380710E+000 -0.706475902779180E+001 -0.706692676819639E+003
  0.100000000000000E+001  0.141338396646288E+004  0.177202634458822E+002  0.624547312514905E+002  0.337027580371313E+000 -0.706475902779180E+001 -0.706691983231441E+003
  0.100000000000000E+001  0.141337976825224E+004  0.690869572674096E+001  0.642593408381139E+002  0.316740143681682E+000 -0.706475902779180E+001 -0.706689884126118E+003
  0.100000000000000E+001  0.141334828638867E+004  0.187530509694692E+002  0.727511142674087E+002  0.336319038142722E+000 -0.706475902779180E+001 -0.706674143194335E+003
  0.100000000000000E+001  0.141334543925566E+004  0.499127093704998E+001  0.717665991181548E+002  0.305534915026855E+000 -0.706475902779180E+001 -0.706672719627832E+003
  0.100000000000000E+001  0.141334176066855E+004  0.700058786957598E-001  0.707185536494175E+002  0.346916757653810E+000 -0.706475902779180E+001 -0.706670880334277E+003
  0.100000000000000E+001  0.141333808361096E+004 -0.756525694311541E+001  0.660605446888662E+002  0.355115499465763E+000 -0.706475902779180E+001 -0.706669041805481E+003
  0.100000000000000E+001  0.141332813251285E+004  0.701457909177857E+001  0.703904043000395E+002  0.304247632983466E+000 -0.706475902779180E+001 -0.706664066256427E+003
  0.100000000000000E+001  0.141331220260573E+004  0.174327912676044E+002  0.730034706253776E+002  0.333932432570499E+000 -0.706475902779180E+001 -0.706656101302866E+003
  0.100000000000000E+001  0.141330898465608E+004  0.888470755556934E+001  0.685654113925610E+002  0.352772908680221E+000 -0.706475902779180E+001 -0.706654492328039E+003
  0.100000000000000E+001  0.141329939492883E+004 -0.179800191560555E+002  0.665706129844155E+002  0.354873980659741E+000 -0.706475902779180E+001 -0.706649697464413E+003
  0.100000000000000E+001  0.141329893169957E+004 -0.935766270922519E+001  0.663662558087314E+002  0.309245964150334E+000 -0.706475902779180E+001 -0.706649465849785E+003
  0.100000000000000E+001  0.141328946662680E+004  0.798160372685157E+001  0.656991623293213E+002  0.354615928634475E+000 -0.706475902779180E+001 -0.706644733313399E+003
  0.100000000000000E+001  0.141328845170690E+004  0.152722229526781E+002  0.726942234695551E+002  0.336136878560742E+000 -0.706475902779180E+001 -0.706644225853449E+003
  0.100000000000000E+001  0.141327712968867E+004  0.116524567578536E+001  0.736557122391157E+002  0.325352289050034E+000 -0.706475902779180E+001 -0.706638564844336E+003
  0.100000000000000E+001  0.141327324146043E+004  0.140644868267639E+002  0.644319160200088E+002  0.352528255366384E+000 -0.706475902779180E+001 -0.706636620730213E+003
  0.100000000000000E+001  0.141326940046180E+004  0.119477931444877E+002  0.686616115160765E+002  0.305216497368192E+000 -0.706475902779180E+001 -0.706634700230901E+003
  0.100000000000000E+001  0.141326831086476E+004 -0.144821525651610E+002  0.644302472417452E+002  0.352482452723093E+000 -0.706475902779180E+001 -0.706634155432380E+003
  0.100000000000000E+001  0.141325453913249E+004 -0.519983628553149E-001  0.720543604333361E+002  0.339998336287806E+000 -0.706475902779180E+001 -0.706627269566247E+003
  0.100000000000000E+001  0.141321813343205E+004 -0.221424632426992E+001  0.681230966785536E+002  0.352971959642469E+000 -0.706475902779180E+001 -0.706609066716026E+003
  0.100000000000000E+001  0.141317587583056E+004  0.616017519279225E+001  0.697148903050447E+002  0.349176260975507E+000 -0.706475902779180E+001 -0.706587937915278E+003
  0.100000000000000E+001  0.141317003081463E+004 -0.683957128869473E+000  0.714320161534199E+002  0.306254947384010E+000 -0.706475902779180E+001 -0.706585015407313E+003
  0.100000000000000E+001  0.141316302027848E+004 -0.384173865674465E+001  0.702280131428477E+002  0.347472587510370E+000 -0.706475902779180E+001 -0.706581510139241E+003
  0.100000000000000E+001  0.141315414010000E+004  0.802814961182170E+001  0.678804346380456E+002  0.352915984540252E+000 -0.706475902779180E+001 -0.706577070049998E+003
  0.100000000000000E+001  0.141314893921240E+004 -0.183829455096869E+002  0.644792131511238E+002  0.351585444900439E+000 -0.706475902779180E+001 -0.706574469606199E+003
  0.100000000000000E+001  0.141314856544531E+004 -0.923832089101482E+001  0.735107886696442E+002  0.324565324088381E+000 -0.706475902779180E+001 -0.706574282722655E+003
  0.100000000000000E+001  0.141313195305885E+004  0.196202637471734E+001  0.655895301064890E+002  0.353403163394282E+000 -0.706475902779180E+001 -0.706565976529425E+003
  0.100000000000000E+001  0.141312697460800E+004  0.276777525885656E+001  0.695471704840212E+002  0.349329347590482E+000 -0.706475902779180E+001 -0.706563487304001E+003
  0.100000000000000E+001  0.141312526603388E+004  0.193358989209415E+000  0.651260115284745E+002  0.352769249191825E+000 -0.706475902779180E+001 -0.706562633016940E+003
  0.100000000000000E+001  0.141311750788467E+004  0.102527646821573E+001  0.658247956256272E+002  0.312050092259103E+000 -0.706475902779180E+001 -0.706558753942336E+003
  0.100000000000000E+001  0.141310993160004E+004 -0.140172916156828E+002  0.667657165092990E+002  0.353572044444938E+000 -0.706475902779180E+001 -0.706554965800021E+003
  0.100000000000000E+001  0.141309683772794E+004  0.522841844331282E+001  0.734351569817657E+002  0.324621826528488E+000 -0.706475902779180E+001 -0.706548418863971E+003
  0.100000000000000E+001  0.141309271666593E+004  0.114294174637562E+002  0.697938667411388E+002  0.305657025405266E+000 -0.706475902779180E+001 -0.706546358332964E+003
  0.100000000000000E+001  0.141306140708179E+004 -0.180345692108030E+002  0.638556873609047E+002  0.322163543695680E+000 -0.706475902779180E+001 -0.706530703540895E+003
  0.100000000000000E+001  0.141303178842541E+004 -0.967122243538206E+000  0.637299023999040E+002  0.347377889613517E+000 -0.706475902779180E+001 -0.706515894212705E+003
  0.100000000000000E+001  0.141299520150437E+004  0.198214468031790E+001  0.678493040518455E+002  0.351915914358277E+000 -0.706475902779180E+001 -0.706497600752185E+003
  0.100000000000000E+001  0.141298698790806E+004  0.502509005592391E+001  0.682465723920105E+002  0.307399956332317E+000 -0.706475902779180E+001 -0.706493493954030E+003
  0.100000000000000E+001  0.141296235531562E+004 -0.106442502949820E+002  0.649662722448980E+002  0.316600398717365E+000 -0.706475902779180E+001 -0.706481177657812E+003
  0.100000000000000E+001  0.141295782467935E+004  0.128005014899421E+002  0.673056675475529E+002  0.309150191106789E+000 -0.706475902779180E+001 -0.706478912339673E+003
  0.100000000000000E+001  0.141294716607558E+004 -0.107017175990437E+001  0.713422545508252E+002  0.341237066955228E+000 -0.706475902779180E+001 -0.706473583037789E+003
  0.100000000000000E+001  0.141293835954909E+004 -0.173132263120232E+002  0.688178449973776E+002  0.349861170864339E+000 -0.706475902779180E+001 -0.706469179774543E+003
  0.100000000000000E+001  0.141292595102915E+004  0.110700450914383E+002  0.726174455044931E+002  0.332529699316739E+000 -0.706475902779180E+001 -0.706462975514575E+003
  0.100000000000000E+001  0.141291706941940E+004  0.164586058780689E+002  0.651748690607561E+002  0.316023256018357E+000 -0.706475902779180E+001 -0.706458534709700E+003
  0.100000000000000E+001  0.141290746480583E+004  0.195833088360675E+001  0.719357596921527E+002  0.337512613413406E+000 -0.706475902779180E+001 -0.706453732402917E+003
  0.100000000000000E+001  0.141285655118250E+004 -0.144384364958837E+002  0.661243539451297E+002  0.351720516789894E+000 -0.706475902779180E+001 -0.706428275591249E+003
  0.100000000000000E+001  0.141283304840320E+004  0.157636867218418E+002  0.641304921638790E+002  0.322735522902258E+000 -0.706475902779180E+001 -0.706416524201601E+003
  0.100000000000000E+001  0.141283187002388E+004 -0.968069358103016E+001  0.664380546051890E+002  0.312125661956048E+000 -0.706475902779180E+001 -0.706415935011939E+003
  0.100000000000000E+001  0.141283158432195E+004  0.140121052412129E+002  0.693969546047317E+002  0.307461638983207E+000 -0.706475902779180E+001 -0.706415792160973E+003
  0.100000000000000E+001  0.141282953197090E+004 -0.545675850994211E+001  0.681660017477426E+002  0.308523716950906E+000 -0.706475902779180E+001 -0.706414765985451E+003
  0.100000000000000E+001  0.141282910436890E+004  0.193161000904597E+002  0.729676752800621E+002  0.317356461065680E+000 -0.706475902779180E+001 -0.706414552184450E+003
  0.100000000000000E+001  0.141282739725193E+004  0.144549049202123E+002  0.726610374002487E+002  0.330598175600480E+000 -0.706475902779180E+001 -0.706413698625965E+003
  0.100000000000000E+001  0.141281641944932E+004  0.667158967152052E+001  0.727887590584933E+002  0.328842494023564E+000 -0.706475902779180E+001 -0.706408209724660E+003
  0.100000000000000E+001  0.141280125048011E+004 -0.106502792925177E+001  0.712890607190340E+002  0.308961035952354E+000 -0.706475902779180E+001 -0.706400625240057E+003
  0.100000000000000E+001  0.141280058572966E+004 -0.824067566663288E+001  0.725052468517654E+002  0.313379061125325E+000 -0.706475902779180E+001 -0.706400292864832E+003
  0.100000000000000E+001  0.141279821073546E+004 -0.195787842916979E+001  0.648412347650311E+002  0.318662182379609E+000 -0.706475902779180E+001 -0.706399105367732E+003
  0.100000000000000E+001  0.141277677876462E+004 -0.649893074564232E+001  0.688669290249786E+002  0.308128088523112E+000 -0.706475902779180E+001 -0.706388389382308E+003
  0.100000000000000E+001  0.141275602330873E+004 -0.152525837149765E+002  0.635666536624775E+002  0.341343250880025E+000 -0.706475902779180E+001 -0.706378011654366E+003
  0.100000000000000E+001  0.141274474445831E+004 -0.129851534671385E+002  0.638427321714474E+002  0.326482330482371E+000 -0.706475902779180E+001 -0.706372372229153E+003
  0.100000000000000E+001  0.141273515797716E+004  0.167807920364886E+001  0.690324112249773E+002  0.347935374284335E+000 -0.706475902779180E+001 -0.706367578988582E+003
  0.100000000000000E+001  0.141273463044716E+004  0.107924096367137E+002  0.668205885429889E+002  0.311778463484624E+000 -0.706475902779180E+001 -0.706367315223580E+003
  0.100000000000000E+001  0.141273331870470E+004 -0.159501910034517E+002  0.647149592506053E+002  0.319991956977265E+000 -0.706475902779180E+001 -0.706366659352349E+003
  0.100000000000000E+001  0.141273184622948E+004 -0.157732731927888E+001  0.702326748626554E+002  0.308251284427952E+000 -0.706475902779180E+001 -0.706365923114739E+003
  0.100000000000000E+001  0.141272789001943E+004 -0.826347750331490E+001  0.713120985840549E+002  0.309661930477577E+000 -0.706475902779180E+001 -0.706363945009713E+003
  0.100000000000000E+001  0.141271807051194E+004 -0.722143426516285E+001  0.699943860980493E+002  0.345021543110691E+000 -0.706475902779180E+001 -0.706359035255972E+003
  0.100000000000000E+001  0.141271596293192E+004  0.994899793573072E+001  0.678990753381272E+002  0.349899623183682E+000 -0.706475902779180E+001 -0.706357981465962E+003
  0.100000000000000E+001  0.141271455125305E+004  0.746112181074388E+000  0.723030441258024E+002  0.313378500788566E+000 -0.706475902779180E+001 -0.706357275626523E+003
  0.100000000000000E+001  0.141271370532797E+004 -0.180349919080545E+002  0.634561658117639E+002  0.334614885891424E+000 -0.706475902779180E+001 -0.706356852663987E+003
  0.100000000000000E+001  0.141270183991882E+004  0.415308060497851E+001  0.647101111802872E+002  0.347941684555090E+000 -0.706475902779180E+001 -0.706350919959411E+003
  0.100000000000000E+001  0.141268195343089E+004 -0.612621331814653E+001  0.652269698475231E+002  0.317804436696768E+000 -0.706475902779180E+001 -0.706340976715447E+003
  0.100000000000000E+001  0.141266395366879E+004 -0.709199094879786E+000  0.647776283750325E+002  0.320342539062234E+000 -0.706475902779180E+001 -0.706331976834395E+003
  0.100000000000000E+001  0.141266181429300E+004  0.144246514104524E+002  0.725083465733097E+002  0.315760257525892E+000 -0.706475902779180E+001 -0.706330907146498E+003
  0.100000000000000E+001  0.141265944709460E+004 -0.187637776631527E+002  0.635563930532210E+002  0.337277908695571E+000 -0.706475902779180E+001 -0.706329723547299E+003
  0.100000000000000E+001  0.141265743047468E+004  0.112058046741729E+001  0.645948254194906E+002  0.321539418758569E+000 -0.706475902779180E+001 -0.706328715237340E+003
  0.100000000000000E+001  0.141265464084648E+004  0.460276873437910E+001  0.722318294750356E+002  0.313825145930229E+000 -0.706475902779180E+001 -0.706327320423241E+003
  0.100000000000000E+001  0.141264639027052E+004 -0.301332053320952E+001  0.727640329281278E+002  0.320513118110100E+000 -0.706475902779180E+001 -0.706323195135260E+003
  0.100000000000000E+001  0.141264079479974E+004  0.289437491279019E+001  0.682847037881915E+002  0.309661140974120E+000 -0.706475902779180E+001 -0.706320397399871E+003
  0.100000000000000E+001  0.141262217136994E+004  0.148390218949721E+002  0.650587194331809E+002  0.319209934094311E+000 -0.706475902779180E+001 -0.706311085684971E+003
  0.100000000000000E+001  0.141261039563153E+004 -0.390092899744216E+001  0.677936721398089E+002  0.349245791861248E+000 -0.706475902779180E+001 -0.706305197815763E+003
  0.100000000000000E+001  0.141260009665957E+004 -0.479022109720565E+001  0.697311331931020E+002  0.309089410531508E+000 -0.706475902779180E+001 -0.706300048329786E+003
  0.100000000000000E+001  0.141259996041135E+004  0.777592032787232E+001  0.721554098063322E+002  0.332082690610637E+000 -0.706475902779180E+001 -0.706299980205674E+003
  0.100000000000000E+001  0.141259645398849E+004  0.110321566201136E+002  0.706456508444531E+002  0.309705229492135E+000 -0.706475902779180E+001 -0.706298226994244E+003
  0.100000000000000E+001  0.141258725375618E+004  0.192355947983220E+002  0.704856297585320E+002  0.342078163602871E+000 -0.706475902779180E+001 -0.706293626878088E+003
  0.100000000000000E+001  0.141256599918864E+004 -0.102450566033360E+002  0.676522344992959E+002  0.311174715729304E+000 -0.706475902779180E+001 -0.706282999594322E+003
  0.100000000000000E+001  0.141254817000250E+004 -0.131588686679116E+002  0.658466416281238E+002  0.316327365792578E+000 -0.706475902779180E+001 -0.706274085001252E+003
  0.100000000000000E+001  0.141254640780090E+004  0.136023206460468E+002  0.643870343816603E+002  0.344582438464722E+000 -0.706475902779180E+001 -0.706273203900452E+003
  0.100000000000000E+001  0.141254505072783E+004  0.805424853441915E+001  0.638008242038161E+002  0.338537510883720E+000 -0.706475902779180E+001 -0.706272525363916E+003
  0.100000000000000E+001  0.141253001190862E+004  0.106517483365922E+002  0.672129842408202E+002  0.312341967075188E+000 -0.706475902779180E+001 -0.706265005954311E+003
  0.100000000000000E+001  0.141252624656770E+004 -0.757823827276945E+001  0.665720368287556E+002  0.314038732831193E+000 -0.706475902779180E+001 -0.706263123283848E+003
  0.100000000000000E+001  0.141251911778675E+004  0.755305050776329E+001  0.716552421313674E+002  0.335042179463141E+000 -0.706475902779180E+001 -0.706259558893377E+003
  0.100000000000000E+001  0.141250906285551E+004  0.464123609415632E+001  0.691728532956054E+002  0.345846829874043E+000 -0.706475902779180E+001 -0.706254531427753E+003
  0.100000000000000E+001  0.141249403709625E+004  0.584124836959585E+001  0.694911573851691E+002  0.309910175906405E+000 -0.706475902779180E+001 -0.706247018548127E+003
  0.100000000000000E+001  0.141249220227641E+004  0.173695535835513E+002  0.692271962993334E+002  0.309982496949418E+000 -0.706475902779180E+001 -0.706246101138203E+003
  0.100000000000000E+001  0.141248768208445E+004 -0.165829916815662E+002  0.643825144643718E+002  0.325385558957464E+000 -0.706475902779180E+001 -0.706243841042223E+003
  0.100000000000000E+001  0.141248569617904E+004  0.180143687487519E+002  0.718558760906252E+002  0.333023642369115E+000 -0.706475902779180E+001 -0.706242848089519E+003
  0.100000000000000E+001  0.141248479500386E+004 -0.178966966006686E+002  0.724241787364156E+002  0.319502387130194E+000 -0.706475902779180E+001 -0.706242397501930E+003
  0.100000000000000E+001  0.141247875256663E+004  0.969276317388582E+001  0.658035498144103E+002  0.348219303148890E+000 -0.706475902779180E+001 -0.706239376283316E+003
  0.100000000000000E+001  0.141247046784434E+004 -0.184015401225160E+002  0.639015366480181E+002  0.332806657004612E+000 -0.706475902779180E+001 -0.706235233922169E+003
  0.100000000000000E+001  0.141244804488100E+004 -0.151668912398723E+002  0.658816955715380E+002  0.317084424805163E+000 -0.706475902779180E+001 -0.706224022440499E+003
  0.100000000000000E+001  0.141244685049991E+004 -0.269605756176984E+001  0.708521125876100E+002  0.339058573816991E+000 -0.706475902779180E+001 -0.706223425249953E+003
  0.100000000000000E+001  0.141243459174579E+004 -0.185701683485431E+002  0.716944251105421E+002  0.333607043337449E+000 -0.706475902779180E+001 -0.706217295872896E+003
  0.100000000000000E+001  0.141242874146129E+004 -0.151318163450322E+002  0.719016685589699E+002  0.331705302206751E+000 -0.706475902779180E+001 -0.706214370730643E+003
  0.100000000000000E+001  0.141242164951634E+004 -0.871508877353833E+001  0.720800244702702E+002  0.329648555762848E+000 -0.706475902779180E+001 -0.706210824758170E+003
  0.100000000000000E+001  0.141241631045462E+004  0.575522610815116E+001  0.662598720382333E+002  0.348120613661960E+000 -0.706475902779180E+001 -0.706208155227309E+003
  0.100000000000000E+001  0.141241576945097E+004  0.939901360532699E+001  0.720907591670795E+002  0.329384947116786E+000 -0.706475902779180E+001 -0.706207884725483E+003
  0.100000000000000E+001  0.141240616577715E+004 -0.467128012084565E+001  0.641467716392538E+002  0.339770058544667E+000 -0.706475902779180E+001 -0.706203082888573E+003
  0.100000000000000E+001  0.141240585148787E+004  0.106777491619062E+002  0.639985743004049E+002  0.336299618235162E+000 -0.706475902779180E+001 -0.706202925743935E+003
  0.100000000000000E+001  0.141240509121845E+004  0.896648831529259E+000  0.698378749867477E+002  0.342951751451807E+000 -0.706475902779180E+001 -0.706202545609227E+003
  0.100000000000000E+001  0.141239136403780E+004 -0.421890680208967E+001  0.723117878638194E+002  0.322074162155979E+000 -0.706475902779180E+001 -0.706195682018902E+003
  0.100000000000000E+001  0.141238214105110E+004 -0.371803164572777E+001  0.709312897090952E+002  0.337953378210613E+000 -0.706475902779180E+001 -0.706191070525552E+003
  0.100000000000000E+001  0.141237323293995E+004  0.167615804142586E+002  0.641128496123739E+002  0.331680804272968E+000 -0.706475902779180E+001 -0.706186616469977E+003
  0.100000000000000E+001  0.141236504237821E+004  0.929455806767728E+001  0.653258687277750E+002  0.346063796751319E+000 -0.706475902779180E+001 -0.706182521189105E+003
  0.100000000000000E+001  0.141236448494992E+004  0.488509530976594E+001  0.694090161307803E+002  0.310968275923118E+000 -0.706475902779180E+001 -0.706182242474959E+003
  0.100000000000000E+001  0.141236058953523E+004  0.133937019088075E+002  0.640996172261951E+002  0.336880775865920E+000 -0.706475902779180E+001 -0.706180294767613E+003
  0.100000000000000E+001  0.141235678414101E+004  0.147249961322038E+001  0.708250462731225E+002  0.338244683846376E+000 -0.706475902779180E+001 -0.706178392070506E+003
  0.100000000000000E+001  0.141234484975638E+004 -0.163655195760871E+002  0.641224679119448E+002  0.336549658898679E+000 -0.706475902779180E+001 -0.706172424878191E+003
  0.100000000000000E+001  0.141233845153301E+004  0.554536146446582E+001  0.675402345532666E+002  0.347316324027289E+000 -0.706475902779180E+001 -0.706169225766506E+003
  0.100000000000000E+001  0.141232849451398E+004 -0.163416631757612E+002  0.642651707070859E+002  0.339057289082077E+000 -0.706475902779180E+001 -0.706164247256988E+003
  0.100000000000000E+001  0.141231475222673E+004  0.123723145624682E+002  0.721071861409313E+002  0.326001864128517E+000 -0.706475902779180E+001 -0.706157376113365E+003
  0.100000000000000E+001  0.141231351585364E+004  0.116395746202184E+001  0.695061648235943E+002  0.343226337008424E+000 -0.706475902779180E+001 -0.706156757926820E+003
  0.100000000000000E+001  0.141230258168411E+004 -0.151624755630390E+002  0.663828271917448E+002  0.316562176683017E+000 -0.706475902779180E+001 -0.706151290842054E+003
  0.100000000000000E+001  0.141229997496705E+004 -0.389610747368152E+001  0.719527219040211E+002  0.318437711816110E+000 -0.706475902779180E+001 -0.706149987483524E+003
  0.100000000000000E+001  0.141229834255240E+004 -0.879534848979631E+001  0.649553589127556E+002  0.323618830541345E+000 -0.706475902779180E+001 -0.706149171276198E+003
  0.100000000000000E+001  0.141229538085422E+004 -0.182627977241541E+001  0.643039959980618E+002  0.338517309817411E+000 -0.706475902779180E+001 -0.706147690427110E+003
  0.100000000000000E+001  0.141228988009045E+004 -0.492941997318833E+001  0.712672717242600E+002  0.314297342019159E+000 -0.706475902779180E+001 -0.706144940045227E+003
  0.100000000000000E+001  0.141227115971287E+004  0.867696707798425E+001  0.649302572745277E+002  0.343346307216019E+000 -0.706475902779180E+001 -0.706135579856433E+003
  0.100000000000000E+001  0.141226636182746E+004  0.418486072344498E+001  0.693728854457749E+002  0.343204199019001E+000 -0.706475902779180E+001 -0.706133180913729E+003
  0.100000000000000E+001  0.141226047289570E+004  0.656990109049669E+001  0.672611949509475E+002  0.346818208854870E+000 -0.706475902779180E+001 -0.706130236447849E+003
  0.100000000000000E+001  0.141226010298199E+004 -0.913780022072652E+001  0.647936025430514E+002  0.325486672050546E+000 -0.706475902779180E+001 -0.706130051490997E+003
  0.100000000000000E+001  0.141225885476662E+004 -0.121988796180522E+002  0.718978723564144E+002  0.318960749914163E+000 -0.706475902779180E+001 -0.706129427383311E+003
  0.100000000000000E+001  0.141225548848349E+004  0.159178781275014E+002  0.649395454163314E+002  0.324369758186128E+000 -0.706475902779180E+001 -0.706127744241745E+003
  0.100000000000000E+001  0.141225289291846E+004 -0.830199327649278E+001  0.647413323717186E+002  0.341940171356606E+000 -0.706475902779180E+001 -0.706126446459229E+003
  0.100000000000000E+001  0.141224169856673E+004  0.290916594862649E+001  0.643936720041917E+002  0.338009186995011E+000 -0.706475902779180E+001 -0.706120849283366E+003
  0.100000000000000E+001  0.141223157239103E+004 -0.732002924590815E+001  0.719534812243962E+002  0.325792344249281E+000 -0.706475902779180E+001 -0.706115786195514E+003
  0.100000000000000E+001  0.141223022234627E+004 -0.130085955753616E+002  0.682707288674712E+002  0.345444931222968E+000 -0.706475902779180E+001 -0.706115111173133E+003
  0.100000000000000E+001  0.141222855748652E+004 -0.101079997978701E+002  0.702054667339577E+002  0.312591575988274E+000 -0.706475902779180E+001 -0.706114278743261E+003
  0.100000000000000E+001  0.141222750265709E+004 -0.130615859928665E+002  0.647412069762360E+002  0.326565494151420E+000 -0.706475902779180E+001 -0.706113751328545E+003
  0.100000000000000E+001  0.141222648765043E+004 -0.848450008155434E+001  0.699503059713213E+002  0.340851962804179E+000 -0.706475902779180E+001 -0.706113243825217E+003
  0.100000000000000E+001  0.141222506276688E+004 -0.154153586045527E+002  0.711033150085593E+002  0.334992993189328E+000 -0.706475902779180E+001 -0.706112531383442E+003
  0.100000000000000E+001  0.141221820479113E+004  0.120939235051433E+002  0.665905784189838E+002  0.346434825835562E+000 -0.706475902779180E+001 -0.706109102395563E+003
  0.100000000000000E+001  0.141221778092590E+004  0.869216166166618E+001  0.644377935009776E+002  0.337834626637234E+000 -0.706475902779180E+001 -0.706108890462949E+003
  0.100000000000000E+001  0.141221716453267E+004  0.933305540734284E+001  0.670676245937497E+002  0.315277825579464E+000 -0.706475902779180E+001 -0.706108582266336E+003
  0.100000000000000E+001  0.141221090893318E+004  0.141906967993279E+002  0.690372188038453E+002  0.312381878502726E+000 -0.706475902779180E+001 -0.706105454466590E+003
  0.100000000000000E+001  0.141221061681717E+004  0.511830107552047E+000  0.699412820045417E+002  0.312515795960869E+000 -0.706475902779180E+001 -0.706105308408586E+003
  0.100000000000000E+001  0.141221059177682E+004 -0.277714392247433E+001  0.645645973018115E+002  0.329013272671693E+000 -0.706475902779180E+001 -0.706105295888411E+003
  0.100000000000000E+001  0.141220128908496E+004  0.164755320899752E+002  0.653158700938099E+002  0.343966279672061E+000 -0.706475902779180E+001 -0.706100644542480E+003
  0.100000000000000E+001  0.141219769576637E+004  0.140522813006855E+002  0.718457437910003E+002  0.326787410418074E+000 -0.706475902779180E+001 -0.706098847883185E+003
  0.100000000000000E+001  0.141219680056792E+004  0.121558065067401E+002  0.649057571859542E+002  0.325610836213504E+000 -0.706475902779180E+001 -0.706098400283962E+003
  0.100000000000000E+001  0.141218861676707E+004  0.850122302930884E+001  0.653752531473367E+002  0.344000696316841E+000 -0.706475902779180E+001 -0.706094308383537E+003
  0.100000000000000E+001  0.141218275827789E+004  0.162837874689051E+002  0.650807225747637E+002  0.324427764121556E+000 -0.706475902779180E+001 -0.706091379138947E+003
  0.100000000000000E+001  0.141217459649110E+004  0.969822149363911E+001  0.649949654691162E+002  0.325239957016341E+000 -0.706475902779180E+001 -0.706087298245550E+003
  0.100000000000000E+001  0.141216472791776E+004  0.813141584499546E+001  0.673832472084460E+002  0.345864697385354E+000 -0.706475902779180E+001 -0.706082363958880E+003
  0.100000000000000E+001  0.141216164362531E+004 -0.594885201759439E+000  0.703057417333836E+002  0.338656172940512E+000 -0.706475902779180E+001 -0.706080821812655E+003
  0.100000000000000E+001  0.141215500493525E+004 -0.746273552352631E+001  0.705537617830552E+002  0.337352254459936E+000 -0.706475902779180E+001 -0.706077502467624E+003
  0.100000000000000E+001  0.141214495771586E+004  0.215598091090105E+001  0.716190349340861E+002  0.328826445444258E+000 -0.706475902779180E+001 -0.706072478857932E+003
  0.100000000000000E+001  0.141214216425124E+004  0.897884895185909E+001  0.703265595107677E+002  0.313673860652602E+000 -0.706475902779180E+001 -0.706071082125619E+003
  0.100000000000000E+001  0.141213314021308E+004 -0.108339958058177E+002  0.717565497622468E+002  0.325652190094324E+000 -0.706475902779180E+001 -0.706066570106540E+003
  0.100000000000000E+001  0.141212478025721E+004  0.970112879494051E+001  0.711388363108283E+002  0.333228392300291E+000 -0.706475902779180E+001 -0.706062390128605E+003
  0.100000000000000E+001  0.141211780466863E+004  0.178188663084217E+002  0.717526736183755E+002  0.323494711924763E+000 -0.706475902779180E+001 -0.706058902334315E+003
  0.100000000000000E+001  0.141211222569204E+004 -0.139837409276069E+002  0.678134925245191E+002  0.314597306454422E+000 -0.706475902779180E+001 -0.706056112846021E+003
  0.100000000000000E+001  0.141209924333828E+004  0.798687926537212E+000  0.715432668125572E+002  0.319532717724552E+000 -0.706475902779180E+001 -0.706049621669141E+003
  0.100000000000000E+001  0.141209703203745E+004 -0.916512929845630E+001  0.663215427929741E+002  0.344941244176349E+000 -0.706475902779180E+001 -0.706048516018724E+003
  0.100000000000000E+001  0.141209325937369E+004  0.148680378378085E+002  0.646606989811935E+002  0.331716188218817E+000 -0.706475902779180E+001 -0.706046629686846E+003
  0.100000000000000E+001  0.141209232700384E+004 -0.980082639103217E+001  0.716095124009090E+002  0.320688107976451E+000 -0.706475902779180E+001 -0.706046163501918E+003
  0.100000000000000E+001  0.141208063273781E+004 -0.230630498470201E+001  0.653066341237551E+002  0.342105608282406E+000 -0.706475902779180E+001 -0.706040316368906E+003
  0.100000000000000E+001  0.141207768769239E+004  0.169685568141353E+001  0.715614133254209E+002  0.327509220025598E+000 -0.706475902779180E+001 -0.706038843846196E+003
  0.100000000000000E+001  0.141207486889469E+004  0.153584628342846E+001  0.670293096694032E+002  0.316727551630206E+000 -0.706475902779180E+001 -0.706037434447347E+003
  0.100000000000000E+001  0.141207396805662E+004 -0.159657130884393E+002  0.702170510493949E+002  0.314276339477298E+000 -0.706475902779180E+001 -0.706036984028312E+003
  0.100000000000000E+001  0.141207040139612E+004 -0.179355915349268E+002  0.708718338280981E+002  0.334310806553626E+000 -0.706475902779180E+001 -0.706035200698062E+003
  0.100000000000000E+001  0.141206381887631E+004  0.482790825656757E+001  0.716257558290866E+002  0.323072567201702E+000 -0.706475902779180E+001 -0.706031909438155E+003
  0.100000000000000E+001  0.141206088977870E+004  0.368860524771440E+001  0.655421226002807E+002  0.323109060590854E+000 -0.706475902779180E+001 -0.706030444889348E+003
  0.100000000000000E+001  0.141205272275599E+004  0.104378766537815E+002  0.652862467596772E+002  0.325011708680285E+000 -0.706475902779180E+001 -0.706026361377996E+003
  0.100000000000000E+001  0.141205045891602E+004  0.863324045690943E+001  0.647153702100902E+002  0.333569808449190E+000 -0.706475902779180E+001 -0.706025229458008E+003
  0.100000000000000E+001  0.141204974434300E+004 -0.150288803780676E+002  0.673000914472996E+002  0.344771522420658E+000 -0.706475902779180E+001 -0.706024872171499E+003
  0.100000000000000E+001  0.141203527986987E+004 -0.117005246813870E+001  0.689081333561882E+002  0.314078783437647E+000 -0.706475902779180E+001 -0.706017639934933E+003
  0.100000000000000E+001  0.141202894181977E+004  0.115605202607917E+002  0.650496139961376E+002  0.327664160228191E+000 -0.706475902779180E+001 -0.706014470909884E+003
  0.100000000000000E+001  0.141201532843464E+004  0.135955817914633E+002  0.701338654161094E+002  0.314839881995532E+000 -0.706475902779180E+001 -0.706007664217322E+003
  0.100000000000000E+001  0.141201358855767E+004 -0.110988751726298E+002  0.703266420686687E+002  0.315207829180976E+000 -0.706475902779180E+001 -0.706006794278833E+003
  0.100000000000000E+001  0.141201119228193E+004  0.984357137514422E+001  0.696779803230003E+002  0.339593557129367E+000 -0.706475902779180E+001 -0.706005596140963E+003
  0.100000000000000E+001  0.141200922696662E+004 -0.148760471923223E+001  0.649341605946605E+002  0.337649416705577E+000 -0.706475902779180E+001 -0.706004613483308E+003
  0.100000000000000E+001  0.141200607378659E+004  0.105145619266414E+002  0.680856978676009E+002  0.315163885144213E+000 -0.706475902779180E+001 -0.706003036893294E+003
  0.100000000000000E+001  0.141200104505043E+004  0.163311960950760E+002  0.669740850971118E+002  0.317643909210628E+000 -0.706475902779180E+001 -0.706000522525213E+003
  0.100000000000000E+001  0.141199493643805E+004  0.652159168933296E+001  0.692675247230615E+002  0.340818651532216E+000 -0.706475902779180E+001 -0.705997468219026E+003
  0.100000000000000E+001  0.141199340905734E+004  0.873450539159535E+001  0.673471186726040E+002  0.344162905054525E+000 -0.706475902779180E+001 -0.705996704528669E+003
  0.100000000000000E+001  0.141198754913223E+004 -0.981882919253545E+001  0.711331698514165E+002  0.330609072690588E+000 -0.706475902779180E+001 -0.705993774566113E+003
  0.100000000000000E+001  0.141198546528068E+004  0.115197582387561E+002  0.713676943172473E+002  0.321303945272173E+000 -0.706475902779180E+001 -0.705992732640338E+003
  0.100000000000000E+001  0.141196601753034E+004 -0.922463385319725E+001  0.665143688326990E+002  0.319584192585642E+000 -0.706475902779180E+001 -0.705983008765172E+003
  0.100000000000000E+001  0.141196331086202E+004 -0.104238887319781E+002  0.710162096598907E+002  0.318523431201151E+000 -0.706475902779180E+001 -0.705981655431012E+003
  0.100000000000000E+001  0.141195653781463E+004  0.464801852261142E+001  0.689585708910698E+002  0.314860099104881E+000 -0.706475902779180E+001 -0.705978268907316E+003
  0.100000000000000E+001  0.141195648978725E+004  0.129528942707436E+002  0.651518089051736E+002  0.328386151031623E+000 -0.706475902779180E+001 -0.705978244893627E+003
  0.100000000000000E+001  0.141195609781676E+004  0.445061089324502E+001  0.657399909586095E+002  0.341834048967725E+000 -0.706475902779180E+001 -0.705978048908380E+003
  0.100000000000000E+001  0.141194560700569E+004  0.136699709911828E+002  0.652411041881648E+002  0.338967542896785E+000 -0.706475902779180E+001 -0.705972803502847E+003
  0.100000000000000E+001  0.141193178529938E+004  0.379016189324335E+001  0.657768738260873E+002  0.323620798270802E+000 -0.706475902779180E+001 -0.705965892649690E+003
  0.100000000000000E+001  0.141193035653232E+004  0.817075777388574E+001  0.689723209625549E+002  0.340965688405911E+000 -0.706475902779180E+001 -0.705965178266158E+003
  0.100000000000000E+001  0.141192881350697E+004  0.952114134729796E+001  0.650413022729101E+002  0.331402856379505E+000 -0.706475902779180E+001 -0.705964406753485E+003
  0.100000000000000E+001  0.141191858233791E+004  0.528555005145078E+001  0.692072406156533E+002  0.315235261911028E+000 -0.706475902779180E+001 -0.705959291168956E+003
  0.100000000000000E+001  0.141191075101765E+004 -0.757365316890931E+001  0.707226943425622E+002  0.317997201415857E+000 -0.706475902779180E+001 -0.705955375508825E+003
  0.100000000000000E+001  0.141190484011163E+004  0.483729271694277E+001  0.660573109151638E+002  0.341997794793970E+000 -0.706475902779180E+001 -0.705952420055816E+003
  0.100000000000000E+001  0.141190402942403E+004  0.603626819495118E+001  0.664006203694607E+002  0.342679729770104E+000 -0.706475902779180E+001 -0.705952014712017E+003
  0.100000000000000E+001  0.141189485884493E+004 -0.151681667606287E+002  0.666635894229037E+002  0.342882434677982E+000 -0.706475902779180E+001 -0.705947429422464E+003
  0.100000000000000E+001  0.141189435739847E+004  0.649970752296057E+001  0.679797672780872E+002  0.342549930549571E+000 -0.706475902779180E+001 -0.705947178699234E+003
  0.100000000000000E+001  0.141188947503324E+004  0.191208062181911E+002  0.704323884056782E+002  0.317252763061272E+000 -0.706475902779180E+001 -0.705944737516621E+003
  0.100000000000000E+001  0.141188891887884E+004 -0.262206979117083E+001  0.665493521344602E+002  0.320394258423816E+000 -0.706475902779180E+001 -0.705944459439421E+003
  0.100000000000000E+001  0.141188890106098E+004 -0.978687705772263E+001  0.695262068504878E+002  0.338708950018299E+000 -0.706475902779180E+001 -0.705944450530492E+003
  0.100000000000000E+001  0.141188273258047E+004 -0.177745029152799E+002  0.708608030099501E+002  0.319352052906133E+000 -0.706475902779180E+001 -0.705941366290237E+003
  0.100000000000000E+001  0.141187973717306E+004  0.186056052305902E+002  0.711803436856658E+002  0.324903591310436E+000 -0.706475902779180E+001 -0.705939868586528E+003
  0.100000000000000E+001  0.141186994405050E+004  0.400309217438857E+001  0.692531323945999E+002  0.339427952067625E+000 -0.706475902779180E+001 -0.705934972025252E+003
  0.100000000000000E+001  0.141185999137780E+004 -0.595708337439760E+001  0.710174745077463E+002  0.321471475569446E+000 -0.706475902779180E+001 -0.705929995688902E+003
  0.100000000000000E+001  0.141185013288640E+004 -0.848022292733181E+001  0.700962153565856E+002  0.316968742708957E+000 -0.706475902779180E+001 -0.705925066443201E+003
  0.100000000000000E+001  0.141184281535470E+004  0.159391598854812E+002  0.664234779262417E+002  0.321539413307370E+000 -0.706475902779180E+001 -0.705921407677349E+003
  0.100000000000000E+001  0.141183494601346E+004  0.130961246086408E+002  0.694660487052445E+002  0.338245595976153E+000 -0.706475902779180E+001 -0.705917473006729E+003
  0.100000000000000E+001  0.141182712307051E+004 -0.277980207024196E+001  0.710325267533050E+002  0.323953033384571E+000 -0.706475902779180E+001 -0.705913561535254E+003
  0.100000000000000E+001  0.141182348181442E+004 -0.135736842167152E+002  0.678073453456080E+002  0.317567431134567E+000 -0.706475902779180E+001 -0.705911740907210E+003
  0.100000000000000E+001  0.141182145907913E+004  0.146032039964052E+002  0.659384887340715E+002  0.340240385782294E+000 -0.706475902779180E+001 -0.705910729539565E+003
  0.100000000000000E+001  0.141181597077189E+004  0.140140919345957E+002  0.689619885853756E+002  0.339650490233150E+000 -0.706475902779180E+001 -0.705907985385944E+003
  0.100000000000000E+001  0.141181470077865E+004  0.137449776377063E+002  0.653436900652025E+002  0.330951572007985E+000 -0.706475902779180E+001 -0.705907350389327E+003
  0.100000000000000E+001  0.141181320177356E+004 -0.147581346293130E+001  0.709875354091950E+002  0.323712918445259E+000 -0.706475902779180E+001 -0.705906600886780E+003
  0.100000000000000E+001  0.141180876141078E+004 -0.440572248199935E+001  0.656286262001398E+002  0.327169608078499E+000 -0.706475902779180E+001 -0.705904380705389E+003
  0.100000000000000E+001  0.141180451033894E+004  0.146298280742385E+002  0.666752295207046E+002  0.341682600230138E+000 -0.706475902779180E+001 -0.705902255169472E+003
  0.100000000000000E+001  0.141180060280807E+004  0.833681274522165E+001  0.685468864425379E+002  0.316828418006627E+000 -0.706475902779180E+001 -0.705900301404036E+003
  0.100000000000000E+001  0.141179619560663E+004  0.139630676770329E+002  0.664966733664568E+002  0.341303474329788E+000 -0.706475902779180E+001 -0.705898097803316E+003
  0.100000000000000E+001  0.141179312212314E+004  0.261791828734172E+000  0.703423111377045E+002  0.318627462788428E+000 -0.706475902779180E+001 -0.705896561061569E+003
  0.100000000000000E+001  0.141177831599636E+004 -0.141861250901044E+002  0.690610032569524E+002  0.338880544774035E+000 -0.706475902779180E+001 -0.705889157998182E+003
  0.100000000000000E+001  0.141177733938735E+004 -0.154907332376464E+002  0.681375221429096E+002  0.317561881963735E+000 -0.706475902779180E+001 -0.705888669693673E+003
  0.100000000000000E+001  0.141177715738945E+004 -0.113828023442148E+002  0.680928910504541E+002  0.317628899563348E+000 -0.706475902779180E+001 -0.705888578694727E+003
  0.100000000000000E+001  0.141177703625311E+004  0.173136647209165E+002  0.698884219569631E+002  0.335590114777399E+000 -0.706475902779180E+001 -0.705888518126554E+003
  0.100000000000000E+001  0.141177677121662E+004 -0.122530633384105E+002  0.706873946846632E+002  0.329788492926924E+000 -0.706475902779180E+001 -0.705888385608311E+003
  0.100000000000000E+001  0.141177104993159E+004  0.709090273285629E+001  0.704485126189920E+002  0.319542249406435E+000 -0.706475902779180E+001 -0.705885524965795E+003
  0.100000000000000E+001  0.141176759401919E+004 -0.173668200781022E+002  0.708385083618898E+002  0.323351457519828E+000 -0.706475902779180E+001 -0.705883797009593E+003
  0.100000000000000E+001  0.141174378916051E+004 -0.443124573194761E+001  0.655138457179849E+002  0.331714832997968E+000 -0.706475902779180E+001 -0.705871894580253E+003
  0.100000000000000E+001  0.141173046827237E+004 -0.776429962152534E+001  0.705470180046717E+002  0.329921775374805E+000 -0.706475902779180E+001 -0.705865234136186E+003
  0.100000000000000E+001  0.141172732697469E+004 -0.499290622976114E+001  0.659596334264321E+002  0.326264143185274E+000 -0.706475902779180E+001 -0.705863663487347E+003
  0.100000000000000E+001  0.141172630283338E+004  0.367766932661930E+001  0.699700593123050E+002  0.334292690810560E+000 -0.706475902779180E+001 -0.705863151416691E+003
  0.100000000000000E+001  0.141172448194538E+004  0.722508555247688E+001  0.658943505629288E+002  0.337906636794833E+000 -0.706475902779180E+001 -0.705862240972690E+003
  0.100000000000000E+001  0.141171042505016E+004 -0.320585951287507E+001  0.703852040010965E+002  0.320676759810297E+000 -0.706475902779180E+001 -0.705855212525081E+003
  0.100000000000000E+001  0.141170887062699E+004  0.164128645932759E+002  0.668475337460320E+002  0.340462021830458E+000 -0.706475902779180E+001 -0.705854435313497E+003
  0.100000000000000E+001  0.141169619470572E+004  0.117938436394399E+002  0.692821220055839E+002  0.336984798244849E+000 -0.706475902779180E+001 -0.705848097352859E+003
  0.100000000000000E+001  0.141169374112446E+004 -0.148493815897816E+002  0.691555850131317E+002  0.337400368114617E+000 -0.706475902779180E+001 -0.705846870562232E+003
  0.100000000000000E+001  0.141169284608537E+004 -0.116313163444010E+002  0.706028050243528E+002  0.327375634136181E+000 -0.706475902779180E+001 -0.705846423042685E+003
  0.100000000000000E+001  0.141168795088995E+004  0.148285945642728E+002  0.706270179590579E+002  0.325786160254000E+000 -0.706475902779180E+001 -0.705843975444974E+003
  0.100000000000000E+001  0.141167987646524E+004 -0.855622770033222E+000  0.683131304994143E+002  0.318574005334846E+000 -0.706475902779180E+001 -0.705839938232621E+003
  0.100000000000000E+001  0.141167777890171E+004 -0.170625215114584E+002  0.670001132039217E+002  0.321617260981161E+000 -0.706475902779180E+001 -0.705838889450855E+003
  0.100000000000000E+001  0.141167507474959E+004  0.738111477503895E+001  0.674163201078732E+002  0.340217664555320E+000 -0.706475902779180E+001 -0.705837537374797E+003
  0.100000000000000E+001  0.141167212225172E+004  0.117857533977313E+002  0.659843968877781E+002  0.337010609974417E+000 -0.706475902779180E+001 -0.705836061125861E+003
  0.100000000000000E+001  0.141166964793787E+004  0.139654364146181E+002  0.696078759301242E+002  0.318879949836451E+000 -0.706475902779180E+001 -0.705834823968935E+003
  0.100000000000000E+001  0.141166880456954E+004 -0.153750044567868E+002  0.681911576371452E+002  0.339444980622370E+000 -0.706475902779180E+001 -0.705834402284768E+003
  0.100000000000000E+001  0.141166022569241E+004 -0.107630851413404E+002  0.659491662332283E+002  0.336338028745379E+000 -0.706475902779180E+001 -0.705830112846205E+003
  0.100000000000000E+001  0.141165565873930E+004  0.286257414500158E+001  0.671936714596515E+002  0.321291121417021E+000 -0.706475902779180E+001 -0.705827829369648E+003
  0.100000000000000E+001  0.141165187044314E+004  0.158240041581502E+001  0.685772255628117E+002  0.318725442849960E+000 -0.706475902779180E+001 -0.705825935221570E+003
  0.100000000000000E+001  0.141164864444336E+004 -0.101440791898703E+002  0.702274358824089E+002  0.330681239914368E+000 -0.706475902779180E+001 -0.705824322221681E+003
  0.100000000000000E+001  0.141164848093366E+004 -0.131882983495636E+002  0.658105894315362E+002  0.331418697091633E+000 -0.706475902779180E+001 -0.705824240466828E+003
  0.100000000000000E+001  0.141164482285167E+004  0.334379055445759E+001  0.665125623671451E+002  0.338717652557759E+000 -0.706475902779180E+001 -0.705822411425834E+003
  0.100000000000000E+001  0.141163404295869E+004  0.125261138799720E+002  0.661498560886102E+002  0.327115256057569E+000 -0.706475902779180E+001 -0.705817021479344E+003
  0.100000000000000E+001  0.141162655926450E+004 -0.182594958168185E+002  0.704224835452532E+002  0.325445824618847E+000 -0.706475902779180E+001 -0.705813279632248E+003
  0.100000000000000E+001  0.141162588650394E+004  0.852038448214121E+001  0.695139743089754E+002  0.334842358436294E+000 -0.706475902779180E+001 -0.705812943251972E+003
  0.100000000000000E+001  0.141162580662718E+004 -0.513195655904561E+001  0.675244860085277E+002  0.339453540756043E+000 -0.706475902779180E+001 -0.705812903313588E+003
  0.100000000000000E+001  0.141162179670475E+004  0.223858989095591E+001  0.679123128882988E+002  0.319980963473145E+000 -0.706475902779180E+001 -0.705810898352373E+003
  0.100000000000000E+001  0.141161671258194E+004  0.166939891290353E+002  0.662969117811205E+002  0.326390057168931E+000 -0.706475902779180E+001 -0.705808356290969E+003
  0.100000000000000E+001  0.141161577005618E+004 -0.940749283230871E+001  0.666973397684731E+002  0.338595180022252E+000 -0.706475902779180E+001 -0.705807885028091E+003
  0.100000000000000E+001  0.141161331309484E+004  0.188579877912382E+002  0.674001904159252E+002  0.339269423727457E+000 -0.706475902779180E+001 -0.705806656547419E+003
  0.100000000000000E+001  0.141160687065042E+004  0.101330390986570E+002  0.703018627349227E+002  0.323933881477123E+000 -0.706475902779180E+001 -0.705803435325209E+003
  0.100000000000000E+001  0.141160282564473E+004  0.954550834887528E+001  0.701988109185931E+002  0.329351183826199E+000 -0.706475902779180E+001 -0.705801412822367E+003
  0.100000000000000E+001  0.141160199983571E+004 -0.426378544419400E+001  0.699025051526204E+002  0.321049165905513E+000 -0.706475902779180E+001 -0.705800999917855E+003
  0.100000000000000E+001  0.141160107039589E+004  0.801315548429545E+001  0.703331158681268E+002  0.325868128543352E+000 -0.706475902779180E+001 -0.705800535197946E+003
  0.100000000000000E+001  0.141160062402487E+004 -0.779504586462824E+001  0.659637821559824E+002  0.331942787451934E+000 -0.706475902779180E+001 -0.705800312012435E+003
  0.100000000000000E+001  0.141159776575380E+004 -0.592341198840922E+001  0.678764548620200E+002  0.320409757758942E+000 -0.706475902779180E+001 -0.705798882876899E+003
  0.100000000000000E+001  0.141159611922793E+004  0.106056115719883E+002  0.674858675398327E+002  0.321345850063571E+000 -0.706475902779180E+001 -0.705798059613963E+003
  0.100000000000000E+001  0.141159035374901E+004  0.145678824734440E+002  0.674551726824178E+002  0.321524783887431E+000 -0.706475902779180E+001 -0.705795176874503E+003
  0.100000000000000E+001  0.141158357210938E+004  0.180215651817702E+002  0.702574687756002E+002  0.325085534366610E+000 -0.706475902779180E+001 -0.705791786054692E+003
  0.100000000000000E+001  0.141157491800192E+004  0.851439855898887E+001  0.675145300901448E+002  0.338627990194331E+000 -0.706475902779180E+001 -0.705787459000962E+003
  0.100000000000000E+001  0.141157322634755E+004  0.132425390945474E+002  0.686394835304099E+002  0.319887573089340E+000 -0.706475902779180E+001 -0.705786613173774E+003
  0.100000000000000E+001  0.141156966284467E+004  0.905839735494708E+001  0.668869015405863E+002  0.338046541679632E+000 -0.706475902779180E+001 -0.705784831422333E+003
  0.100000000000000E+001  0.141156748176665E+004 -0.261317832038806E+000  0.665003095496676E+002  0.336873606797043E+000 -0.706475902779180E+001 -0.705783740883324E+003
  0.100000000000000E+001  0.141154439329215E+004  0.541831943890175E+001  0.689539618901472E+002  0.335620131260461E+000 -0.706475902779180E+001 -0.705772196646073E+003
  0.100000000000000E+001  0.141153876249571E+004  0.385424131501694E+001  0.684207679811630E+002  0.336994322154179E+000 -0.706475902779180E+001 -0.705769381247856E+003
  0.100000000000000E+001  0.141153750631733E+004  0.146795684829637E+002  0.692399101691061E+002  0.334363039206950E+000 -0.706475902779180E+001 -0.705768753158667E+003
  0.100000000000000E+001  0.141153543398011E+004  0.104959785869467E+002  0.696432699396318E+002  0.321778395163970E+000 -0.706475902779180E+001 -0.705767716990054E+003
  0.100000000000000E+001  0.141152367940317E+004  0.349667541344490E+001  0.681160226882156E+002  0.321210415372192E+000 -0.706475902779180E+001 -0.705761839701586E+003
  0.100000000000000E+001  0.141151761933695E+004  0.542809886406888E+001  0.676010310671034E+002  0.322386735336709E+000 -0.706475902779180E+001 -0.705758809668473E+003
  0.100000000000000E+001  0.141151577342743E+004  0.173171426860484E+002  0.691314511591999E+002  0.321086312020972E+000 -0.706475902779180E+001 -0.705757886713717E+003
  0.100000000000000E+001  0.141151381375492E+004 -0.924627006215719E+000  0.699847285745467E+002  0.327020405558308E+000 -0.706475902779180E+001 -0.705756906877461E+003
  0.100000000000000E+001  0.141148692287737E+004  0.154862770856260E+002  0.694632506334187E+002  0.322509324357070E+000 -0.706475902779180E+001 -0.705743461438685E+003
  0.100000000000000E+001  0.141148581939487E+004  0.870780922648699E+001  0.673181457689235E+002  0.336841110666173E+000 -0.706475902779180E+001 -0.705742909697435E+003
  0.100000000000000E+001  0.141148268543005E+004  0.114867178009072E+002  0.686052974960779E+002  0.321533393829890E+000 -0.706475902779180E+001 -0.705741342715025E+003
  0.100000000000000E+001  0.141146497728336E+004  0.124516721339542E+002  0.695634943227256E+002  0.330386295315138E+000 -0.706475902779180E+001 -0.705732488641678E+003
  0.100000000000000E+001  0.141145956618544E+004  0.182804248218617E+002  0.674460886365584E+002  0.336334085143506E+000 -0.706475902779180E+001 -0.705729783092718E+003
  0.100000000000000E+001  0.141145154884429E+004  0.879960587509398E+001  0.696896764848935E+002  0.327642975089394E+000 -0.706475902779180E+001 -0.705725774422144E+003
  0.100000000000000E+001  0.141144026190922E+004  0.140791086483138E+001  0.676213006387271E+002  0.335938892695825E+000 -0.706475902779180E+001 -0.705720130954609E+003
  0.100000000000000E+001  0.141142215777822E+004  0.354922760500162E+001  0.678616179568599E+002  0.323742342270098E+000 -0.706475902779180E+001 -0.705711078889108E+003
  0.100000000000000E+001  0.141141790954836E+004  0.184577546326425E+002  0.690736287213967E+002  0.323503063615083E+000 -0.706475902779180E+001 -0.705708954774182E+003
  0.100000000000000E+001  0.141157207519800E+004 -0.106953980563071E+002  0.660886867805086E+002  0.330820596819810E+000 -0.706475902779180E+001 -0.705786037599001E+003
  0.100000000000000E+001  0.141156939029169E+004 -0.716410656653052E+001  0.679252431024731E+002  0.320763051876646E+000 -0.706475902779180E+001 -0.705784695145843E+003
  0.100000000000000E+001  0.141156843173713E+004 -0.118459978095488E+002  0.661447456855813E+002  0.334219536424594E+000 -0.706475902779180E+001 -0.705784215868565E+003
  0.100000000000000E+001  0.141156261216259E+004 -0.226018165909500E+001  0.683478739939524E+002  0.337550398949401E+000 -0.706475902779180E+001 -0.705781306081293E+003
  0.100000000000000E+001  0.141152786807362E+004 -0.862899036646770E+001  0.663782330166987E+002  0.334752789069264E+000 -0.706475902779180E+001 -0.705763934036808E+003
  0.100000000000000E+001  0.141152780816527E+004 -0.853263894898884E+001  0.689792004652540E+002  0.335211847032080E+000 -0.706475902779180E+001 -0.705763904082633E+003
  0.100000000000000E+001  0.141152727921038E+004 -0.745248328249513E+001  0.689251493965989E+002  0.335392266650649E+000 -0.706475902779180E+001 -0.705763639605192E+003
  0.100000000000000E+001  0.141151845695954E+004 -0.200862252229806E+001  0.687179779413938E+002  0.320821500389550E+000 -0.706475902779180E+001 -0.705759228479769E+003
  0.100000000000000E+001  0.141151793841060E+004 -0.125431462229285E+002  0.663084817039671E+002  0.333135756948657E+000 -0.706475902779180E+001 -0.705758969205302E+003
  0.100000000000000E+001  0.141151748620327E+004 -0.750645990076254E+001  0.694170977479628E+002  0.333033781810054E+000 -0.706475902779180E+001 -0.705758743101636E+003
  0.100000000000000E+001  0.141151712216137E+004 -0.160115008593873E+002  0.680688898254617E+002  0.337218384768554E+000 -0.706475902779180E+001 -0.705758561080687E+003
  0.100000000000000E+001  0.141151509281233E+004 -0.135618025868314E+002  0.664031823847121E+002  0.328976496649425E+000 -0.706475902779180E+001 -0.705757546406165E+003
  0.100000000000000E+001  0.141151451339314E+004 -0.137931720405193E+002  0.681591553244613E+002  0.337041241983521E+000 -0.706475902779180E+001 -0.705757256696569E+003
  0.100000000000000E+001  0.141150862084543E+004 -0.576667903257055E+001  0.690667376579118E+002  0.334483886041330E+000 -0.706475902779180E+001 -0.705754310422716E+003
  0.100000000000000E+001  0.141149671082317E+004 -0.176920605373361E+002  0.666640300279321E+002  0.335470734722413E+000 -0.706475902779180E+001 -0.705748355411585E+003
  0.100000000000000E+001  0.141149609718700E+004 -0.813046875471241E+001  0.683761990026779E+002  0.321403368552035E+000 -0.706475902779180E+001 -0.705748048593500E+003
  0.100000000000000E+001  0.141148535741140E+004 -0.138865763173499E+002  0.697847892476429E+002  0.324548090987276E+000 -0.706475902779180E+001 -0.705742678705702E+003
  0.100000000000000E+001  0.141148279011435E+004 -0.958249283019966E+001  0.679346609215500E+002  0.322275671700720E+000 -0.706475902779180E+001 -0.705741395057174E+003
  0.100000000000000E+001  0.141146963191252E+004 -0.667699153295129E+001  0.674167305127536E+002  0.323929845014579E+000 -0.706475902779180E+001 -0.705734815956262E+003
  0.100000000000000E+001  0.141146075775989E+004 -0.212332008680914E+001  0.685065738683763E+002  0.322022068043722E+000 -0.706475902779180E+001 -0.705730378879946E+003
  0.100000000000000E+001  0.141145489908052E+004 -0.228342318785893E+001  0.681717232168966E+002  0.322449475346246E+000 -0.706475902779180E+001 -0.705727449540261E+003
  0.100000000000000E+001  0.141145002418919E+004 -0.187855261750900E+002  0.666146907104671E+002  0.330278559018619E+000 -0.706475902779180E+001 -0.705725012094594E+003
  0.100000000000000E+001  0.141144924805706E+004 -0.124641426063465E+002  0.696017404873089E+002  0.329158506574924E+000 -0.706475902779180E+001 -0.705724624028528E+003
  0.100000000000000E+001  0.141144824299599E+004 -0.100844797494854E+002  0.685996243518128E+002  0.322267757613609E+000 -0.706475902779180E+001 -0.705724121497993E+003
  0.100000000000000E+001  0.141144776602612E+004 -0.162070937328453E+002  0.669114679579830E+002  0.327003803874250E+000 -0.706475902779180E+001 -0.705723883013060E+003
  0.100000000000000E+001  0.141144581992717E+004 -0.176353212448721E+002  0.696541996315382E+002  0.325954006130094E+000 -0.706475902779180E+001 -0.705722909963585E+003
  0.100000000000000E+001  0.141141416221340E+004 -0.183538265839085E+002  0.676447883619304E+002  0.335280613372833E+000 -0.706475902779180E+001 -0.705707081106702E+003
  0.100000000000000E+001  0.141141384634513E+004 -0.221151652022348E+001  0.677927535651942E+002  0.335263078531947E+000 -0.706475902779180E+001 -0.705706923172566E+003
  0.100000000000000E+001  0.141139643727242E+004  0.630280494927513E+001  0.680872612788553E+002  0.334564954127445E+000 -0.706475902779180E+001 -0.705698218636209E+003
  0.100000000000000E+001  0.141139353091815E+004  0.164833621924566E+002  0.669358140013178E+002  0.331917136033346E+000 -0.706475902779180E+001 -0.705696765459076E+003
  0.100000000000000E+001  0.141138760273990E+004  0.109769528388625E+002  0.675908316561389E+002  0.334480379203674E+000 -0.706475902779180E+001 -0.705693801369950E+003
  0.100000000000000E+001  0.141137959902091E+004  0.186267593725057E+002  0.671796965587267E+002  0.333146995610619E+000 -0.706475902779180E+001 -0.705689799510454E+003
  0.100000000000000E+001  0.141136814409011E+004  0.415608127275527E+001  0.688827854256272E+002  0.331252316569781E+000 -0.706475902779180E+001 -0.705684072045053E+003
  0.100000000000000E+001  0.141136425608200E+004  0.151900985894288E+002  0.679049957167322E+002  0.333766395143065E+000 -0.706475902779180E+001 -0.705682128041000E+003
  0.100000000000000E+001  0.141136394867681E+004  0.904892204469357E+001  0.671204968559597E+002  0.330875342265800E+000 -0.706475902779180E+001 -0.705681974338404E+003
  0.100000000000000E+001  0.141136259407678E+004  0.147310993369663E+002  0.682847136820142E+002  0.333222257205105E+000 -0.706475902779180E+001 -0.705681297038389E+003
  0.100000000000000E+001  0.141134300455079E+004  0.135710998160026E+002  0.687954539091074E+002  0.330473829386363E+000 -0.706475902779180E+001 -0.705671502275397E+003
  0.100000000000000E+001  0.141134272807868E+004  0.322811314089567E+001  0.674885359748610E+002  0.327829337995720E+000 -0.706475902779180E+001 -0.705671364039340E+003
  0.100000000000000E+001  0.141139200491264E+004 -0.707195737262203E+001  0.692173331858326E+002  0.325139575501369E+000 -0.706475902779180E+001 -0.705696002456322E+003
  0.100000000000000E+001  0.141138011278287E+004 -0.130339783341989E+002  0.672560505897876E+002  0.333520243941427E+000 -0.706475902779180E+001 -0.705690056391435E+003
  0.100000000000000E+001  0.141136604326242E+004 -0.790292685978499E+001  0.690836591036123E+002  0.329621120225743E+000 -0.706475902779180E+001 -0.705683021631211E+003
  0.100000000000000E+001  0.141135384141903E+004 -0.169779620489883E+002  0.671997968231630E+002  0.330531204752965E+000 -0.706475902779180E+001 -0.705676920709517E+003
  0.100000000000000E+001  0.141133622540265E+004  0.205415226415187E+000  0.685186444720117E+002  0.331511433409038E+000 -0.706475902779180E+001 -0.705668112701326E+003
  0.100000000000000E+001  0.141132074504252E+004  0.792539959515913E+000  0.675365236712836E+002  0.329947155192645E+000 -0.706475902779180E+001 -0.705660372521261E+003
  0.100000000000000E+001  0.141131465305000E+004  0.377327255555708E+001  0.680951260741284E+002  0.331431255613890E+000 -0.706475902779180E+001 -0.705657326525000E+003
  0.100000000000000E+001  0.141131862545721E+004 -0.133399493595258E+002  0.686066893988246E+002  0.329913610715904E+000 -0.706475902779180E+001 -0.705659312728607E+003
  0.100000000000000E+001  0.141130158170264E+004  0.144134570132463E+002  0.678949344035202E+002  0.329269282143863E+000 -0.706475902779180E+001 -0.705650790851319E+003
  0.100000000000000E+001  0.141129923988246E+004  0.177296338279288E+002  0.680368898090280E+002  0.328773438174273E+000 -0.706475902779180E+001 -0.705649619941232E+003
